{"learner":{"attributes":{},"feature_names":["speed","curvature","roadType_Highway","roadType_Rural","roadType_Urban","weather_Clear","weather_Fog","weather_Rain","weather_Snow","lighting_Day","lighting_Dusk","lighting_Night"],"feature_types":["int","int","int","int","int","int","int","int","int","int","int","int"],"gradient_booster":{"model":{"cats":{"enc":[],"feature_segments":[],"sorted_idx":[]},"gbtree_model_param":{"num_parallel_tree":"1","num_trees":"100"},"iteration_indptr":[0,1,2,3,4,5,6,7,8,9,10,11,12,13,14,15,16,17,18,19,20,21,22,23,24,25,26,27,28,29,30,31,32,33,34,35,36,37,38,39,40,41,42,43,44,45,46,47,48,49,50,51,52,53,54,55,56,57,58,59,60,61,62,63,64,65,66,67,68,69,70,71,72,73,74,75,76,77,78,79,80,81,82,83,84,85,86,87,88,89,90,91,92,93,94,95,96,97,98,99,100],"tree_info":[0,0,0,0,0,0,0,0,0,0,0,0,0,0,0,0,0,0,0,0,0,0,0,0,0,0,0,0,0,0,0,0,0,0,0,0,0,0,0,0,0,0,0,0,0,0,0,0,0,0,0,0,0,0,0,0,0,0,0,0,0,0,0,0,0,0,0,0,0,0,0,0,0,0,0,0,0,0,0,0,0,0,0,0,0,0,0,0,0,0,0,0,0,0,0,0,0,0,0,0],"trees":[{"base_weights":[-2.812501E-2,5.1225147E0,-1.7168625E1,3.0514238E0,8.931064E0,-2.176077E1,-7.627598E0,5.3664284E0,-1.7816969E0,1.0235777E1,6.3765163E0,-1.2724423E0,-1.4802576E1,-5.297652E-1,1.5461108E-1,3.855709E0,7.9477196E0,-4.7342634E0,4.670989E0,5.449517E-1,4.451874E-1,4.3031308E-1,9.2164695E-2,-3.382069E-1,-1.1449469E0,1.9123827E0,5.283775E0,3.301622E-1,4.5531756E-1,-6.4145246E0,-1.3053386E-1,1.916219E-1,2.870849E-1,2.708814E0,1.1676959E0,7.559657E0,2.9477344E0,-1.4097041E-1,-4.2987257E-1,-2.0885945E-3,2.3869209E-1,9.906066E-2,2.0601785E-2,4.9784857E-1,2.7030328E-1,1.9660912E-1,5.6728613E-2],"categories":[],"categories_nodes":[],"categories_segments":[],"categories_sizes":[],"default_left":[0,0,0,0,0,0,0,0,0,0,0,0,0,0,0,0,0,0,0,0,0,0,0,0,0,0,0,0,0,0,0,0,0,0,0,0,0,0,0,0,0,0,0,0,0,0,0],"id":0,"left_children":[1,3,5,7,9,11,13,15,17,19,21,-1,23,-1,-1,25,27,29,31,-1,-1,-1,-1,-1,-1,33,35,-1,-1,37,-1,-1,-1,39,41,43,45,-1,-1,-1,-1,-1,-1,-1,-1,-1,-1],"loss_changes":[6.9921016E4,4.776448E3,7.8519414E3,4.440285E3,6.479844E2,2.7797617E3,1.9733721E3,1.0144502E3,2.47982E3,2.6644531E1,7.4223096E2,0E0,2.7738037E3,0E0,0E0,4.644541E2,9.252832E1,3.0082178E2,1.4806946E1,0E0,0E0,0E0,0E0,0E0,0E0,4.0725708E1,4.9873804E2,0E0,0E0,3.6030603E2,0E0,0E0,0E0,1.9900073E2,2.3773376E1,1.9915137E2,8.4786896E1,0E0,0E0,0E0,0E0,0E0,0E0,0E0,0E0,0E0,0E0],"parents":[2147483647,0,0,1,1,2,2,3,3,4,4,5,5,6,6,7,7,8,8,9,9,10,10,12,12,15,15,16,16,17,17,18,18,25,25,26,26,29,29,33,33,34,34,35,35,36,36],"right_children":[2,4,6,8,10,12,14,16,18,20,22,-1,24,-1,-1,26,28,30,32,-1,-1,-1,-1,-1,-1,34,36,-1,-1,38,-1,-1,-1,40,42,44,46,-1,-1,-1,-1,-1,-1,-1,-1,-1,-1],"split_conditions":[1E0,1E0,1E0,1E0,1E0,1E0,1E0,1E0,1E0,1E0,1E0,-1.2724423E0,1E0,-5.297652E-1,1.5461108E-1,1E0,1E0,1E0,1E0,5.449517E-1,4.451874E-1,4.3031308E-1,9.2164695E-2,-3.382069E-1,-1.1449469E0,1E0,1E0,3.301622E-1,4.5531756E-1,1E0,-1.3053386E-1,1.916219E-1,2.870849E-1,1E0,1E0,1E0,1E0,-1.4097041E-1,-4.2987257E-1,-2.0885945E-3,2.3869209E-1,9.906066E-2,2.0601785E-2,4.9784857E-1,2.7030328E-1,1.9660912E-1,5.6728613E-2],"split_indices":[5,8,4,2,2,11,11,11,11,9,9,0,2,0,0,6,6,6,6,0,0,0,0,0,0,4,9,0,0,9,0,0,0,9,9,4,4,0,0,0,0,0,0,0,0,0,0],"split_type":[0,0,0,0,0,0,0,0,0,0,0,0,0,0,0,0,0,0,0,0,0,0,0,0,0,0,0,0,0,0,0,0,0,0,0,0,0,0,0,0,0,0,0,0,0,0,0],"sum_hessian":[7.9E2,6.08E2,1.82E2,3.95E2,2.13E2,1.22E2,6E1,2.67E2,1.28E2,1.39E2,7.4E1,7.8E1,4.4E1,4.7E1,1.3E1,1.7E2,9.7E1,8.8E1,4E1,8.8E1,5.1E1,4.9E1,2.5E1,2.3E1,2.1E1,7.3E1,9.7E1,4.8E1,4.9E1,4.8E1,4E1,2.5E1,1.5E1,3.4E1,3.9E1,4.8E1,4.9E1,1.9E1,2.9E1,1.5E1,1.9E1,1.8E1,2.1E1,2.1E1,2.7E1,3.1E1,1.8E1],"tree_param":{"num_deleted":"0","num_feature":"12","num_nodes":"47","size_leaf_vector":"1"}},{"base_weights":[1.8534291E-1,4.3298626E0,-1.4533464E1,2.5339513E0,8.078063E0,-1.9827578E1,-3.96772E0,4.77008E0,-1.5825112E0,4.6773502E-1,5.884111E0,-1.1687082E0,-1.2683312E1,-5.7328925E0,1.4275245E-1,3.110121E0,3.7347654E-1,-3.4778254E0,2.0563085E0,3.7194757E0,4.488084E-1,-3.954738E-1,-8.897312E-1,-1.4728273E-1,-3.8092873E-1,9.2780554E-1,4.9539394E0,-5.917454E0,-6.5275896E-1,5.0574798E-2,1.717538E-1,-6.1831515E-2,3.8850236E-1,2.810626E0,-7.576592E-1,3.3560479E0,6.3202906E0,-3.876564E-1,-1.6881505E-1,-7.616249E-2,8.710144E-3,1.0824044E-1,1.671253E-1,3.233298E-3,-1.1484887E-1,2.2325666E-1,7.2217844E-2,3.5983512E-1,2.7029786E-1],"categories":[],"categories_nodes":[],"categories_segments":[],"categories_sizes":[],"default_left":[0,0,0,0,0,0,0,0,0,0,0,0,0,0,0,0,0,0,0,0,0,0,0,0,0,0,0,0,0,0,0,0,0,0,0,0,0,0,0,0,0,0,0,0,0,0,0,0,0],"id":1,"left_children":[1,3,5,7,9,11,13,15,17,-1,19,-1,21,23,-1,25,-1,27,29,31,-1,-1,-1,-1,-1,33,35,37,39,-1,-1,-1,-1,41,43,45,47,-1,-1,-1,-1,-1,-1,-1,-1,-1,-1,-1,-1],"loss_changes":[4.886484E4,4.1866787E3,9.766105E3,3.9104436E3,5.1073242E2,2.6680586E3,7.389695E2,1.2090371E3,1.0416576E3,0E0,4.819878E2,0E0,8.5967725E2,2.2983887E2,0E0,6.874966E2,0E0,6.784564E2,7.143419E1,9.5313666E2,0E0,0E0,0E0,0E0,0E0,2.5600372E2,1.8183374E2,2.2105383E2,3.4098904E1,0E0,0E0,0E0,0E0,5.8170166E0,5.4578796E1,8.896109E1,3.6035156E-1,0E0,0E0,0E0,0E0,0E0,0E0,0E0,0E0,0E0,0E0,0E0,0E0],"parents":[2147483647,0,0,1,1,2,2,3,3,4,4,5,5,6,6,7,7,8,8,10,10,12,12,13,13,15,15,17,17,18,18,19,19,25,25,26,26,27,27,28,28,33,33,34,34,35,35,36,36],"right_children":[2,4,6,8,10,12,14,16,18,-1,20,-1,22,24,-1,26,-1,28,30,32,-1,-1,-1,-1,-1,34,36,38,40,-1,-1,-1,-1,42,44,46,48,-1,-1,-1,-1,-1,-1,-1,-1,-1,-1,-1,-1],"split_conditions":[1E0,1E0,1E0,1E0,1E0,1E0,1E0,1E0,1E0,4.6773502E-1,1E0,-1.1687082E0,1E0,1E0,1.4275245E-1,1E0,3.7347654E-1,1E0,1E0,1E0,4.488084E-1,-3.954738E-1,-8.897312E-1,-1.4728273E-1,-3.8092873E-1,1E0,1E0,1E0,1E0,5.0574798E-2,1.717538E-1,-6.1831515E-2,3.8850236E-1,1E0,1E0,1E0,1E0,-3.876564E-1,-1.6881505E-1,-7.616249E-2,8.710144E-3,1.0824044E-1,1.671253E-1,3.233298E-3,-1.1484887E-1,2.2325666E-1,7.2217844E-2,3.5983512E-1,2.7029786E-1],"split_indices":[5,8,4,2,2,11,11,11,11,0,11,0,2,10,0,6,0,10,6,10,0,0,0,0,0,4,10,6,6,0,0,0,0,10,10,4,4,0,0,0,0,0,0,0,0,0,0,0,0],"split_type":[0,0,0,0,0,0,0,0,0,0,0,0,0,0,0,0,0,0,0,0,0,0,0,0,0,0,0,0,0,0,0,0,0,0,0,0,0,0,0,0,0,0,0,0,0,0,0,0,0],"sum_hessian":[7.99E2,6.24E2,1.75E2,4.23E2,2.01E2,1.16E2,5.9E1,2.74E2,1.49E2,1.25E2,7.6E1,7.6E1,4E1,4.7E1,1.2E1,1.71E2,1.03E2,9.8E1,5.1E1,4.6E1,3E1,2.2E1,1.8E1,2E1,2.7E1,7.9E1,9.2E1,5.2E1,4.6E1,3E1,2.1E1,2.1E1,2.5E1,3.7E1,4.2E1,4.4E1,4.8E1,2.9E1,2.3E1,2.2E1,2.4E1,1.9E1,1.8E1,2.8E1,1.4E1,2.7E1,1.7E1,2.1E1,2.7E1],"tree_param":{"num_deleted":"0","num_feature":"12","num_nodes":"49","size_leaf_vector":"1"}},{"base_weights":[5.228478E-2,4.0815215E0,-1.4005065E1,2.18955E0,7.96652E0,-1.9655668E1,-4.118349E0,4.249012E0,-1.6500609E0,8.797021E0,6.188362E0,-1.4379015E1,-1.2038531E0,-2.1210594E0,-3.5547617E-1,2.6760883E0,7.264606E0,-3.4913218E0,1.8842992E0,4.1098377E-1,4.9467358E-1,3.777908E-1,1.5921971E-1,-9.7293377E-1,-3.8541308E-1,-2.085104E-2,-1.7868869E-1,-3.5145518E-1,5.077622E0,2.7516136E-1,4.140254E-1,-2.0135362E0,-2.3923726E-1,6.510121E-4,1.9944727E-1,9.383011E-1,-6.765947E-2,6.220113E0,3.6326306E0,-2.028637E-1,5.7049436E-3,1.13927715E-1,-3.468307E-2,3.534969E-1,2.63813E-1,2.3716617E-1,8.730859E-2],"categories":[],"categories_nodes":[],"categories_segments":[],"categories_sizes":[],"default_left":[0,0,0,0,0,0,0,0,0,0,0,0,0,0,0,0,0,0,0,0,0,0,0,0,0,0,0,0,0,0,0,0,0,0,0,0,0,0,0,0,0,0,0,0,0,0,0],"id":2,"left_children":[1,3,5,7,9,11,13,15,17,19,21,23,-1,25,-1,27,29,31,33,-1,-1,-1,-1,-1,-1,-1,-1,35,37,-1,-1,39,-1,-1,-1,41,-1,43,45,-1,-1,-1,-1,-1,-1,-1,-1],"loss_changes":[4.5256195E4,4.5470986E3,9.8631875E3,3.3202676E3,2.4534277E2,2.2901055E3,3.792202E2,1.27548E3,9.632074E2,4.7714844E0,2.5526904E2,1.6798066E3,0E0,1.00004425E2,0E0,1.3177898E3,1.2084375E2,1.7577185E2,2.0080547E2,0E0,0E0,0E0,0E0,0E0,0E0,0E0,0E0,1.0592112E2,1.4414429E2,0E0,0E0,2.0483437E2,0E0,0E0,0E0,8.032128E1,0E0,6.8134766E0,9.019537E1,0E0,0E0,0E0,0E0,0E0,0E0,0E0,0E0],"parents":[2147483647,0,0,1,1,2,2,3,3,4,4,5,5,6,6,7,7,8,8,9,9,10,10,11,11,13,13,15,15,16,16,17,17,18,18,27,27,28,28,31,31,35,35,37,37,38,38],"right_children":[2,4,6,8,10,12,14,16,18,20,22,24,-1,26,-1,28,30,32,34,-1,-1,-1,-1,-1,-1,-1,-1,36,38,-1,-1,40,-1,-1,-1,42,-1,44,46,-1,-1,-1,-1,-1,-1,-1,-1],"split_conditions":[1E0,1E0,1E0,1E0,1E0,1E0,1E0,1E0,1E0,1E0,1E0,1E0,-1.2038531E0,1E0,-3.5547617E-1,1E0,1E0,1E0,1E0,4.1098377E-1,4.9467358E-1,3.777908E-1,1.5921971E-1,-9.7293377E-1,-3.8541308E-1,-2.085104E-2,-1.7868869E-1,1E0,1E0,2.7516136E-1,4.140254E-1,1E0,-2.3923726E-1,6.510121E-4,1.9944727E-1,1E0,-6.765947E-2,1E0,1E0,-2.028637E-1,5.7049436E-3,1.13927715E-1,-3.468307E-2,3.534969E-1,2.63813E-1,2.3716617E-1,8.730859E-2],"split_indices":[5,8,4,2,2,2,10,11,11,11,9,11,0,9,0,6,4,9,6,0,0,0,0,0,0,0,0,9,9,0,0,6,0,0,0,4,0,4,4,0,0,0,0,0,0,0,0],"split_type":[0,0,0,0,0,0,0,0,0,0,0,0,0,0,0,0,0,0,0,0,0,0,0,0,0,0,0,0,0,0,0,0,0,0,0,0,0,0,0,0,0,0,0,0,0,0,0],"sum_hessian":[7.97E2,6.2E2,1.77E2,4.18E2,2.02E2,1.12E2,6.5E1,2.72E2,1.46E2,1.35E2,6.7E1,5.3E1,5.9E1,4E1,2.5E1,1.8E2,9.2E1,9.6E1,5E1,9.4E1,4.1E1,4.5E1,2.2E1,2.9E1,2.4E1,1.9E1,2.1E1,8E1,1E2,3.6E1,5.6E1,4.6E1,5E1,2.7E1,2.3E1,3.5E1,4.5E1,5.4E1,4.6E1,2.3E1,2.3E1,1.9E1,1.6E1,2.5E1,2.9E1,2.8E1,1.8E1],"tree_param":{"num_deleted":"0","num_feature":"12","num_nodes":"47","size_leaf_vector":"1"}},{"base_weights":[9.743115E-2,-1.256997E1,5.3132515E0,-7.6817503E0,-3.1267761E1,9.132997E0,-7.288824E0,-1.2058692E1,9.209643E-1,-1.7774296E0,-8.3393234E-1,2.835442E0,1.1099581E1,-1.6002678E1,1.5322173E0,-6.865582E0,-2.2657442E1,4.222206E0,-4.529911E0,-1.4857706E0,8.177886E0,9.453671E0,5.762562E-1,-1.0841962E1,-1.196111E0,-2.977713E0,6.698942E0,-1.2210736E1,-3.4719589E0,-2.4651285E1,-4.7257262E-1,7.889288E-1,8.156057E0,8.969554E-1,-1.4277335E1,1.1677603E0,-6.85122E0,4.508553E-1,6.278236E0,5.548617E-1,5.4987154E0,-9.261851E-1,-6.895752E0,1.4997717E0,-1.0440707E1,4.3506885E-1,2.0850794E0,-8.466301E0,-7.430374E-1,-9.9148214E-1,-9.8551E0,-1.8574734E1,-1.4996325E0,3.207401E0,-2.1409864E0,4.2272115E-1,6.9636725E-2,-2.1670876E0,3.8613367E0,-9.180462E-1,-9.175385E0,4.2302504E0,-6.5857787E0,-6.560247E-1,-5.290423E-1,3.8152122E0,3.7493888E-1,4.8281747E-1,1.8392378E0,2.2332883E0,-9.271066E0,-5.5017596E-1,6.556813E0,-7.1552277E-1,-6.5139914E-1,5.0230665E0,-4.3121643E0,-2.8487856E-2,-5.525502E-1,1.1403938E-1,-2.7764174E-1,9.594212E-2,-6.479244E-1,-1.0030044E0,-5.201863E-1,-5.967471E-2,3.0535737E-1,2.1092653E-2,-3.3657095E-1,1.3420562E-1,-4.451058E-1,3.8375378E-1,3.3764396E-2,-1.0458629E-2,-6.8030995E-1,2.9860917E-1,5.598348E-2,-2.019236E-1,-5.3353876E-1,1.0465423E-1,-4.1095376E-1,3.394352E-1,8.4629886E-2,-2.3348549E-1,2.4548939E-1,-1.3153839E-1,1.7412129E-1,-8.47043E-1,-3.1805375E-1,1.5210257E-1,-5.249189E-1,4.3455902E-1,1.982415E-1,-7.485733E-2,4.073372E-2,-1.6090833E-1,3.3300617E-1,-3.0876413E-2,-3.8490182E-1],"categories":[],"categories_nodes":[],"categories_segments":[],"categories_sizes":[],"default_left":[0,0,0,0,0,0,0,0,0,0,0,0,0,0,0,0,0,0,0,0,0,0,0,0,0,0,0,0,0,0,0,0,0,0,0,0,0,0,0,0,0,0,0,0,0,0,0,0,0,0,0,0,0,0,0,0,0,0,0,0,0,0,0,0,0,0,0,0,0,0,0,0,0,0,0,0,0,0,0,0,0,0,0,0,0,0,0,0,0,0,0,0,0,0,0,0,0,0,0,0,0,0,0,0,0,0,0,0,0,0,0,0,0,0,0,0,0,0,0],"id":3,"left_children":[1,3,5,7,9,11,13,15,17,-1,-1,19,21,23,25,27,29,31,33,35,37,39,-1,41,-1,43,45,47,49,51,-1,53,55,57,59,61,63,-1,65,-1,67,-1,69,71,73,-1,75,77,-1,79,81,83,-1,85,87,-1,-1,89,91,-1,93,95,97,-1,99,101,-1,-1,103,105,107,109,111,113,-1,115,117,-1,-1,-1,-1,-1,-1,-1,-1,-1,-1,-1,-1,-1,-1,-1,-1,-1,-1,-1,-1,-1,-1,-1,-1,-1,-1,-1,-1,-1,-1,-1,-1,-1,-1,-1,-1,-1,-1,-1,-1,-1,-1],"loss_changes":[5.391456E4,2.151275E4,2.7889594E4,7.165284E3,2.4673203E3,5.4673203E3,1.040133E4,6.779543E3,1.188779E3,0E0,0E0,2.482335E3,1.2778516E2,2.51983E3,1.6044542E3,1.5175962E3,8.465703E2,5.4731146E2,1.3352552E3,8.622437E2,1.9911133E1,4.2649512E2,0E0,1.1757563E3,0E0,1.25203E3,2.7750366E2,2.0163672E2,8.4522327E2,5.788906E2,0E0,1.6984312E2,2.6566284E1,1.627787E2,1.9039917E1,1.0014101E3,7.85768E2,0E0,2.5502625E1,0E0,3.4739404E2,0E0,6.712351E2,2.5240749E2,3.4294238E2,0E0,2.2840552E2,3.202671E2,0E0,6.097038E2,5.7295215E2,2.190039E1,0E0,1.7318808E2,1.3224962E2,0E0,0E0,3.17951E2,1.0417395E2,0E0,2.3551971E2,1.5586584E2,8.177527E1,0E0,2.3900989E2,3.9002068E1,0E0,0E0,3.0273196E2,5.1692577E1,4.2789453E2,6.7518835E2,4.266632E0,6.0038404E0,0E0,1.2936435E2,4.52845E1,0E0,0E0,0E0,0E0,0E0,0E0,0E0,0E0,0E0,0E0,0E0,0E0,0E0,0E0,0E0,0E0,0E0,0E0,0E0,0E0,0E0,0E0,0E0,0E0,0E0,0E0,0E0,0E0,0E0,0E0,0E0,0E0,0E0,0E0,0E0,0E0,0E0,0E0,0E0,0E0,0E0,0E0],"parents":[2147483647,0,0,1,1,2,2,3,3,4,4,5,5,6,6,7,7,8,8,11,11,12,12,13,13,14,14,15,15,16,16,17,17,18,18,19,19,20,20,21,21,23,23,25,25,26,26,27,27,28,28,29,29,31,31,32,32,33,33,34,34,35,35,36,36,38,38,40,40,42,42,43,43,44,44,46,46,47,47,49,49,50,50,51,51,53,53,54,54,57,57,58,58,60,60,61,61,62,62,64,64,65,65,68,68,69,69,70,70,71,71,72,72,73,73,75,75,76,76],"right_children":[2,4,6,8,10,12,14,16,18,-1,-1,20,22,24,26,28,30,32,34,36,38,40,-1,42,-1,44,46,48,50,52,-1,54,56,58,60,62,64,-1,66,-1,68,-1,70,72,74,-1,76,78,-1,80,82,84,-1,86,88,-1,-1,90,92,-1,94,96,98,-1,100,102,-1,-1,104,106,108,110,112,114,-1,116,118,-1,-1,-1,-1,-1,-1,-1,-1,-1,-1,-1,-1,-1,-1,-1,-1,-1,-1,-1,-1,-1,-1,-1,-1,-1,-1,-1,-1,-1,-1,-1,-1,-1,-1,-1,-1,-1,-1,-1,-1,-1,-1],"split_conditions":[5.6E1,1E0,1E0,1E0,4.8E1,7.1E1,8.8E1,1E0,1E0,-1.7774296E0,-8.3393234E-1,1E0,8.2E1,1E0,1.08E2,4E1,5.3E1,4.2E1,1E0,1E0,1E0,1E0,5.762562E-1,6.8E1,-1.196111E0,1E0,1E0,1E0,1E0,1E0,-4.7257262E-1,1E0,5.5E1,4.4E1,4.1E1,1E0,6.3E1,4.508553E-1,6.2E1,5.548617E-1,1E0,-9.261851E-1,7.3E1,1E0,9.3E1,4.3506885E-1,1E0,1E0,-7.430374E-1,1E0,4.2E1,4.4E1,-1.4996325E0,3.3E1,1E0,4.2272115E-1,6.9636725E-2,3.6E1,5E1,-9.180462E-1,4.6E1,1E0,1E0,-6.560247E-1,6.7E1,5.8E1,3.7493888E-1,4.8281747E-1,7.6E1,6.9E1,7.6E1,1E0,9.5E1,9.2E1,-6.5139914E-1,1.1E2,1.17E2,-2.8487856E-2,-5.525502E-1,1.1403938E-1,-2.7764174E-1,9.594212E-2,-6.479244E-1,-1.0030044E0,-5.201863E-1,-5.967471E-2,3.0535737E-1,2.1092653E-2,-3.3657095E-1,1.3420562E-1,-4.451058E-1,3.8375378E-1,3.3764396E-2,-1.0458629E-2,-6.8030995E-1,2.9860917E-1,5.598348E-2,-2.019236E-1,-5.3353876E-1,1.0465423E-1,-4.1095376E-1,3.394352E-1,8.4629886E-2,-2.3348549E-1,2.4548939E-1,-1.3153839E-1,1.7412129E-1,-8.47043E-1,-3.1805375E-1,1.5210257E-1,-5.249189E-1,4.3455902E-1,1.982415E-1,-7.485733E-2,4.073372E-2,-1.6090833E-1,3.3300617E-1,-3.0876413E-2,-3.8490182E-1],"split_indices":[0,5,5,8,0,0,0,2,2,0,0,8,0,2,0,0,0,0,9,9,9,7,0,0,0,9,2,7,9,7,0,3,0,0,0,2,0,0,0,0,2,0,0,10,0,0,10,3,0,10,0,0,0,0,9,0,0,0,0,0,0,7,10,0,0,0,0,0,0,0,0,2,0,0,0,0,0,0,0,0,0,0,0,0,0,0,0,0,0,0,0,0,0,0,0,0,0,0,0,0,0,0,0,0,0,0,0,0,0,0,0,0,0,0,0,0,0,0,0],"split_type":[0,0,0,0,0,0,0,0,0,0,0,0,0,0,0,0,0,0,0,0,0,0,0,0,0,0,0,0,0,0,0,0,0,0,0,0,0,0,0,0,0,0,0,0,0,0,0,0,0,0,0,0,0,0,0,0,0,0,0,0,0,0,0,0,0,0,0,0,0,0,0,0,0,0,0,0,0,0,0,0,0,0,0,0,0,0,0,0,0,0,0,0,0,0,0,0,0,0,0,0,0,0,0,0,0,0,0,0,0,0,0,0,0,0,0,0,0,0,0],"sum_hessian":[8.14E2,2.37E2,5.77E2,1.89E2,4.8E1,4.43E2,1.34E2,1.25E2,6.4E1,3.6E1,1.2E1,1.06E2,3.37E2,6.7E1,6.7E1,8.5E1,4E1,4E1,2.4E1,5.9E1,4.7E1,7.4E1,2.63E2,4.2E1,2.5E1,3.6E1,3.1E1,3.2E1,5.3E1,3.4E1,6E0,2.2E1,1.8E1,1.6E1,8E0,4E1,1.9E1,3E1,1.7E1,5.1E1,2.3E1,1.3E1,2.9E1,2.3E1,1.3E1,2.1E1,1E1,1.5E1,1.7E1,3.9E1,1.4E1,1.8E1,1.6E1,1.2E1,1E1,1.7E1,1E0,8E0,8E0,3E0,5E0,2.9E1,1.1E1,9E0,1E1,7E0,1E1,1E1,1.3E1,6E0,2.3E1,1.7E1,6E0,3E0,1E1,7E0,3E0,4E0,1.1E1,2.3E1,1.6E1,3E0,1.1E1,1.4E1,4E0,5E0,7E0,7E0,3E0,5E0,3E0,3E0,5E0,2E0,3E0,1.8E1,1.1E1,8E0,3E0,8E0,2E0,2E0,5E0,4E0,9E0,1E0,5E0,5E0,1.8E1,1.3E1,4E0,2E0,4E0,2E0,1E0,1E0,6E0,2E0,1E0],"tree_param":{"num_deleted":"0","num_feature":"12","num_nodes":"119","size_leaf_vector":"1"}},{"base_weights":[7.042961E-2,3.6323943E0,-1.2227696E1,1.959653E0,6.992797E0,-7.7612906E0,-1.940431E1,3.494103E0,-1.101267E0,3.9034638E-1,5.6231318E0,-1.1202769E1,-1.0322974E0,-8.6561614E-1,-1.1779734E0,2.0251765E0,5.941667E0,-2.765862E0,1.1079688E-1,3.43236E-1,1.12384334E-1,-7.9952545E0,-7.820308E-1,7.2842278E-3,-9.7458914E-2,-5.866342E-1,4.3594713E0,6.907865E0,2.1869533E-1,-5.0077944E0,-5.5972165E-1,-3.0639216E-1,-4.9188185E-1,-8.4739405E-1,-2.7071556E-1,1.7366812E-1,4.9187083E0,2.6896083E-1,3.9312333E-1,-1.3993953E-1,-3.458049E-1,-1.66012E-2,-3.5525244E-2,-6.8266816E-3,-6.5812215E-2,-4.9864378E-2,8.802811E-3,3.3010754E-1,1.7283651E-1],"categories":[],"categories_nodes":[],"categories_segments":[],"categories_sizes":[],"default_left":[0,0,0,0,0,0,0,0,0,0,0,0,0,0,0,0,0,0,0,0,0,0,0,0,0,0,0,0,0,0,0,0,0,0,0,0,0,0,0,0,0,0,0,0,0,0,0,0,0],"id":4,"left_children":[1,3,5,7,9,11,13,15,17,-1,19,21,23,-1,-1,25,27,29,-1,-1,-1,31,-1,-1,-1,33,35,37,-1,39,41,-1,-1,43,45,-1,47,-1,-1,-1,-1,-1,-1,-1,-1,-1,-1,-1,-1],"loss_changes":[3.491359E4,3.460127E3,5.587004E3,1.9483351E3,1.8469336E2,2.5820972E3,1.8322461E2,9.802676E2,7.7365955E2,0E0,3.1984326E2,9.282988E2,4.2406662E1,0E0,0E0,1.0633896E3,1.2580664E2,4.5717664E2,0E0,0E0,0E0,9.453833E1,0E0,0E0,0E0,6.6080437E0,2.8505615E1,4.8179688E1,0E0,1.7455396E2,1.4120789E0,0E0,0E0,1.4818203E1,1.283544E1,0E0,1.1008057E2,0E0,0E0,0E0,0E0,0E0,0E0,0E0,0E0,0E0,0E0,0E0,0E0],"parents":[2147483647,0,0,1,1,2,2,3,3,4,4,5,5,6,6,7,7,8,8,10,10,11,11,12,12,15,15,16,16,17,17,21,21,25,25,26,26,27,27,29,29,30,30,33,33,34,34,36,36],"right_children":[2,4,6,8,10,12,14,16,18,-1,20,22,24,-1,-1,26,28,30,-1,-1,-1,32,-1,-1,-1,34,36,38,-1,40,42,-1,-1,44,46,-1,48,-1,-1,-1,-1,-1,-1,-1,-1,-1,-1,-1,-1],"split_conditions":[1E0,1E0,1E0,1E0,1E0,1E0,1E0,1E0,1E0,3.9034638E-1,1E0,1E0,1E0,-8.6561614E-1,-1.1779734E0,1E0,1E0,1E0,1.1079688E-1,3.43236E-1,1.12384334E-1,1E0,-7.820308E-1,7.2842278E-3,-9.7458914E-2,1E0,1E0,1E0,2.1869533E-1,1E0,1E0,-3.0639216E-1,-4.9188185E-1,1E0,1E0,1.7366812E-1,1E0,2.6896083E-1,3.9312333E-1,-1.3993953E-1,-3.458049E-1,-1.66012E-2,-3.5525244E-2,-6.8266816E-3,-6.5812215E-2,-4.9864378E-2,8.802811E-3,3.3010754E-1,1.7283651E-1],"split_indices":[5,8,2,2,2,11,9,11,11,0,9,3,3,0,0,6,3,6,0,0,0,9,0,0,0,3,3,6,0,9,9,0,0,9,9,0,9,0,0,0,0,0,0,0,0,0,0,0,0],"split_type":[0,0,0,0,0,0,0,0,0,0,0,0,0,0,0,0,0,0,0,0,0,0,0,0,0,0,0,0,0,0,0,0,0,0,0,0,0,0,0,0,0,0,0,0,0,0,0,0,0],"sum_hessian":[7.95E2,6.17E2,1.78E2,4.13E2,2.04E2,1.11E2,6.7E1,2.75E2,1.38E2,1.25E2,7.9E1,7.3E1,3.8E1,4.8E1,1.9E1,1.73E2,1.02E2,9.2E1,4.6E1,5.7E1,2.2E1,4.4E1,2.9E1,1.7E1,2.1E1,8.2E1,9.1E1,6.1E1,4.1E1,4.5E1,4.7E1,2.4E1,2E1,4.4E1,3.8E1,3.8E1,5.3E1,2.6E1,3.5E1,2.2E1,2.3E1,2E1,2.7E1,1.8E1,2.6E1,1.4E1,2.4E1,2.3E1,3E1],"tree_param":{"num_deleted":"0","num_feature":"12","num_nodes":"49","size_leaf_vector":"1"}},{"base_weights":[-3.123062E-1,-1.2205321E1,4.894089E0,-7.823195E0,-2.840358E1,8.617922E0,-6.6097E0,-1.18365965E1,2.0052268E-1,-3.22536E1,-8.37831E-1,3.470037E0,1.044889E1,-1.4409193E1,2.37141E0,-1.4685486E1,-5.294239E0,-6.989076E0,2.0958786E0,-1.7102495E0,-1.033013E0,5.8600545E0,-3.9946606E0,9.091255E0,5.3515357E-1,-9.331216E-1,-1.1568769E1,-1.3823191E0,8.841627E0,-2.0278881E1,-9.805191E0,-9.8338217E-1,-1.2137887E0,-1.8299451E0,-6.7814636E-1,3.6122132E-2,5.7798576E0,7.698371E0,2.6743228E0,-6.2961164E0,1.34509E-1,5.1493853E-1,6.1977377E0,1.3473892E-1,-1.2965252E1,1.4363722E0,-7.7806587E0,4.8936805E-1,3.2903626E0,-1.057156E0,-4.9138823E-1,-1.2577807E1,-5.3773966E0,-5.5099883E0,6.26869E-1,1.9744416E-1,-3.4913452E0,1.5855979E0,-9.577852E0,6.5981927E0,1.061552E0,7.0103965E0,4.761041E-1,6.828343E0,-2.1660948E0,-5.289341E-1,-3.8352313E0,-2.3565026E-1,1.0905609E0,6.786193E0,7.972463E-1,-1.7620742E0,2.4047013E-1,-8.278188E-1,-1.1156906E1,4.2193452E-1,6.3482475E-1,-3.673935E-3,-4.2084002E-1,-3.5363886E-1,3.824671E-1,-1.3712451E-1,-6.591192E-1,1.7325981E-1,-3.8309208E-1,-7.6295964E-2,-5.552306E-1,2.2261754E-1,-1.4762828E-1,2.0508443E-1,-9.020195E-2,-9.338293E-2,-2.496523E-1,-1.9703064E-2,2.3764484E-1,1.9348298E-1,-6.9535726E-1,2.4707626E-1,4.2678592E-1,2.6925355E-1,-1.0873222E-1,4.171226E-1,2.858809E-1,1.5117814E-1,3.8497272E-1,-4.122254E-1,1.152702E-1,1.987737E-2,-2.3204839E-1,1.5713419E-1,-7.950493E-2,3.9481732E-1,2.2751136E-1,8.921242E-3,5.0872233E-2,2.3070736E-1,-2.2548333E-1,-2.62833E-1,-6.858115E-1,-9.571448E-2,1.3331519E-1],"categories":[],"categories_nodes":[],"categories_segments":[],"categories_sizes":[],"default_left":[0,0,0,0,0,0,0,0,0,0,0,0,0,0,0,0,0,0,0,0,0,0,0,0,0,0,0,0,0,0,0,0,0,0,0,0,0,0,0,0,0,0,0,0,0,0,0,0,0,0,0,0,0,0,0,0,0,0,0,0,0,0,0,0,0,0,0,0,0,0,0,0,0,0,0,0,0,0,0,0,0,0,0,0,0,0,0,0,0,0,0,0,0,0,0,0,0,0,0,0,0,0,0,0,0,0,0,0,0,0,0,0,0,0,0,0,0,0,0,0,0],"id":5,"left_children":[1,3,5,7,9,11,13,15,17,19,-1,21,23,25,27,29,31,33,35,-1,-1,37,39,41,-1,-1,43,45,47,49,51,-1,53,55,-1,57,59,61,63,65,67,-1,69,71,73,75,77,-1,79,-1,-1,81,83,85,87,89,91,93,95,97,99,101,-1,103,105,-1,107,-1,109,111,113,115,-1,-1,117,-1,119,-1,-1,-1,-1,-1,-1,-1,-1,-1,-1,-1,-1,-1,-1,-1,-1,-1,-1,-1,-1,-1,-1,-1,-1,-1,-1,-1,-1,-1,-1,-1,-1,-1,-1,-1,-1,-1,-1,-1,-1,-1,-1,-1,-1],"loss_changes":[5.0028965E4,1.7239566E4,2.413202E4,6.281843E3,1.7912734E3,3.9696309E3,9.700809E3,2.34525E3,9.140203E2,1.529961E2,0E0,2.0394144E3,1.0707031E1,6.780918E2,1.5909055E3,2.2579277E3,2.380776E3,4.4999554E2,4.019605E2,0E0,0E0,4.830608E2,2.6693375E2,1.3183301E2,0E0,0E0,7.699033E2,7.686436E2,9.379663E1,1.6253125E2,5.4619336E2,0E0,2.6441254E2,3.1004087E1,0E0,5.365683E2,6.6357605E1,9.9853516E-1,6.783281E2,1.491286E2,5.6119045E1,0E0,5.4970703E1,6.1676304E1,8.80293E1,1.630236E2,6.3118652E1,0E0,2.7996564E2,0E0,0E0,1.422334E2,4.5075854E2,2.0594894E2,3.417793E2,4.6471E1,2.86615E0,1.9624826E2,3.4490704E2,9.177856E0,6.767764E1,2.6349365E1,0E0,3.637921E1,4.538808E2,0E0,4.618158E1,0E0,6.0007603E1,6.2683105E0,2.2725296E-1,1.0840455E2,0E0,0E0,3.9601807E2,0E0,1.501013E2,0E0,0E0,0E0,0E0,0E0,0E0,0E0,0E0,0E0,0E0,0E0,0E0,0E0,0E0,0E0,0E0,0E0,0E0,0E0,0E0,0E0,0E0,0E0,0E0,0E0,0E0,0E0,0E0,0E0,0E0,0E0,0E0,0E0,0E0,0E0,0E0,0E0,0E0,0E0,0E0,0E0,0E0,0E0,0E0],"parents":[2147483647,0,0,1,1,2,2,3,3,4,4,5,5,6,6,7,7,8,8,9,9,11,11,12,12,13,13,14,14,15,15,16,16,17,17,18,18,21,21,22,22,23,23,26,26,27,27,28,28,29,29,30,30,32,32,33,33,35,35,36,36,37,37,38,38,39,39,40,40,42,42,43,43,44,44,45,45,46,46,48,48,51,51,52,52,53,53,54,54,55,55,56,56,57,57,58,58,59,59,60,60,61,61,63,63,64,64,66,66,68,68,69,69,70,70,71,71,74,74,76,76],"right_children":[2,4,6,8,10,12,14,16,18,20,-1,22,24,26,28,30,32,34,36,-1,-1,38,40,42,-1,-1,44,46,48,50,52,-1,54,56,-1,58,60,62,64,66,68,-1,70,72,74,76,78,-1,80,-1,-1,82,84,86,88,90,92,94,96,98,100,102,-1,104,106,-1,108,-1,110,112,114,116,-1,-1,118,-1,120,-1,-1,-1,-1,-1,-1,-1,-1,-1,-1,-1,-1,-1,-1,-1,-1,-1,-1,-1,-1,-1,-1,-1,-1,-1,-1,-1,-1,-1,-1,-1,-1,-1,-1,-1,-1,-1,-1,-1,-1,-1,-1,-1,-1],"split_conditions":[5.6E1,1E0,1E0,1E0,4.8E1,7.2E1,8.9E1,1E0,3.4E1,1E0,-8.37831E-1,1E0,8.2E1,6.9E1,1.1E2,1E0,3.6E1,1E0,5E1,-1.7102495E0,-1.033013E0,1E0,1E0,1E0,5.3515357E-1,-9.331216E-1,7.1E1,1E0,1.18E2,5.4E1,4.6E1,-9.8338217E-1,4E1,1E0,-6.7814636E-1,4.7E1,5.5E1,6.9E1,1E0,6.3E1,5.7E1,5.1493853E-1,8E1,1E0,7.6E1,9.1E1,9.1E1,4.8936805E-1,1E0,-1.057156E0,-4.9138823E-1,3.3E1,4.7E1,3.9E1,4.7E1,3.1E1,3.2E1,1E0,1E0,5.3E1,1E0,6E1,4.761041E-1,5.9E1,6.3E1,-5.289341E-1,6.5E1,-2.3565026E-1,6.8E1,1E0,8.1E1,7E1,2.4047013E-1,-8.278188E-1,7.8E1,4.2193452E-1,9.8E1,-3.673935E-3,-4.2084002E-1,-3.5363886E-1,3.824671E-1,-1.3712451E-1,-6.591192E-1,1.7325981E-1,-3.8309208E-1,-7.6295964E-2,-5.552306E-1,2.2261754E-1,-1.4762828E-1,2.0508443E-1,-9.020195E-2,-9.338293E-2,-2.496523E-1,-1.9703064E-2,2.3764484E-1,1.9348298E-1,-6.9535726E-1,2.4707626E-1,4.2678592E-1,2.6925355E-1,-1.0873222E-1,4.171226E-1,2.858809E-1,1.5117814E-1,3.8497272E-1,-4.122254E-1,1.152702E-1,1.987737E-2,-2.3204839E-1,1.5713419E-1,-7.950493E-2,3.9481732E-1,2.2751136E-1,8.921242E-3,5.0872233E-2,2.3070736E-1,-2.2548333E-1,-2.62833E-1,-6.858115E-1,-9.571448E-2,1.3331519E-1],"split_indices":[0,5,5,8,0,0,0,11,0,11,0,7,0,0,0,6,0,9,0,0,0,9,11,7,0,0,0,9,0,0,0,0,0,10,0,0,0,0,6,0,0,0,0,10,0,0,0,0,9,0,0,0,0,0,0,0,0,11,9,0,9,0,0,0,0,0,0,0,0,9,0,0,0,0,0,0,0,0,0,0,0,0,0,0,0,0,0,0,0,0,0,0,0,0,0,0,0,0,0,0,0,0,0,0,0,0,0,0,0,0,0,0,0,0,0,0,0,0,0,0,0],"split_type":[0,0,0,0,0,0,0,0,0,0,0,0,0,0,0,0,0,0,0,0,0,0,0,0,0,0,0,0,0,0,0,0,0,0,0,0,0,0,0,0,0,0,0,0,0,0,0,0,0,0,0,0,0,0,0,0,0,0,0,0,0,0,0,0,0,0,0,0,0,0,0,0,0,0,0,0,0,0,0,0,0,0,0,0,0,0,0,0,0,0,0,0,0,0,0,0,0,0,0,0,0,0,0,0,0,0,0,0,0,0,0,0,0,0,0,0,0,0,0,0,0],"sum_hessian":[8.06E2,2.45E2,5.61E2,1.94E2,5.1E1,4.24E2,1.37E2,1.29E2,6.5E1,3.7E1,1.4E1,1.12E2,3.12E2,7.3E1,6.4E1,8.9E1,4E1,1.3E1,5.2E1,3E1,7E0,8.5E1,2.7E1,5.5E1,2.57E2,2.7E1,4.6E1,4.1E1,2.3E1,4E1,4.9E1,8E0,3.2E1,8E0,5E0,3.4E1,1.8E1,5.3E1,3.2E1,1.7E1,1E1,3.7E1,1.8E1,5E0,4.1E1,2.9E1,1.2E1,1.9E1,4E0,3.6E1,4E0,2.9E1,2E1,9E0,2.3E1,4E0,4E0,3E1,4E0,1.5E1,3E0,4.2E1,1.1E1,1.7E1,1.5E1,5E0,1.2E1,1E0,9E0,1.6E1,2E0,4E0,1E0,1.1E1,3E1,2E0,2.7E1,1E0,1.1E1,1E0,3E0,2E0,2.7E1,4E0,1.6E1,6E0,3E0,1.1E1,1.2E1,1E0,3E0,3E0,1E0,1.9E1,1.1E1,1E0,3E0,1E1,5E0,1E0,2E0,1.8E1,2.4E1,4E0,1.3E1,6E0,9E0,2E0,1E1,5E0,4E0,9E0,7E0,1E0,1E0,1E0,3E0,1E1,2E1,1.2E1,1.5E1],"tree_param":{"num_deleted":"0","num_feature":"12","num_nodes":"121","size_leaf_vector":"1"}},{"base_weights":[2.55899E-1,-1.0461054E1,5.201705E0,-6.9917316E0,-1.7572502E1,1.5241065E0,8.494341E0,-1.05985985E1,-3.0575193E-2,-2.2870207E1,-1.170304E1,3.7563796E0,-2.165719E0,7.721433E0,5.295412E-1,-1.342877E1,-4.150266E0,-6.533354E0,3.3049672E0,-1.6498672E1,-1.3347968E0,-1.5019527E1,-6.815138E0,2.0274408E0,6.957348E0,-7.701225E0,4.6710524E-1,6.8696456E0,4.491329E-1,-1.0685519E1,-1.6031506E1,-1.9555486E0,-1.2649772E1,-6.866949E-1,-4.4547935E0,5.723144E0,1.6580814E-1,-9.384947E-1,1.1140646E0,-1.6099655E1,2.1858178E-1,2.512538E-1,-9.518186E0,3.7952206E0,-1.566046E0,5.1849666E0,5.1562613E-1,-6.43399E0,-7.323281E-1,2.7050672E0,-5.2112775E0,5.889874E0,4.314263E-1,-1.6309134E1,-6.2568955E0,-3.9923858E-2,-1.6432467E1,-7.3113847E-1,-6.161696E-1,-1.2121582E-1,-8.127546E-1,-3.0503285E0,-9.992187E0,4.1965318E-1,2.7987893E0,-1.5925398E0,3.156432E0,-1.6950035E-1,2.5305519E-1,-5.175005E0,-8.776116E-1,-1.1872019E1,-4.0087647E0,2.4926114E0,5.448946E0,7.48885E-1,-4.3618317E0,5.9815035E0,2.686057E0,-2.7136786E0,-8.35007E0,1.2432537E0,4.0678164E-1,7.9040422E0,-1.3520551E1,4.4427776E-1,5.18397E0,-3.695977E-1,-9.704315E-1,2.9245812E-2,-4.2849976E-1,-7.0671976E-1,-1.0185205E0,-3.8407263E-1,4.0579397E-2,-3.0815387E-1,2.2185564E-2,-1.0605272E0,3.1111318E-1,-3.3477995E-1,2.1353033E-1,3.7763007E-2,-4.4438463E-1,3.3636647E-1,-6.0178664E-2,-3.8439953E-1,5.9098817E-2,-2.8590956E-1,-8.441105E-1,-1.0673799E-1,-2.5855917E-1,1.8747722E-1,-2.7322105E-1,4.2629084E-1,1.4620213E-1,-1.9790994E-1,2.4799858E-1,-6.2014814E-2,-8.737527E-1,1.9146895E-1,4.4796944E-1,3.6022708E-1,-1.14005186E-1,-3.0719784E-1,5.844396E-2,-2.4475947E-1,-6.0283864E-1,-5.681128E-2,1.05147205E-1,4.4162455E-1,3.512249E-2,-9.12751E-1,3.3839315E-1,4.700003E-2,3.3438286E-1],"categories":[],"categories_nodes":[],"categories_segments":[],"categories_sizes":[],"default_left":[0,0,0,0,0,0,0,0,0,0,0,0,0,0,0,0,0,0,0,0,0,0,0,0,0,0,0,0,0,0,0,0,0,0,0,0,0,0,0,0,0,0,0,0,0,0,0,0,0,0,0,0,0,0,0,0,0,0,0,0,0,0,0,0,0,0,0,0,0,0,0,0,0,0,0,0,0,0,0,0,0,0,0,0,0,0,0,0,0,0,0,0,0,0,0,0,0,0,0,0,0,0,0,0,0,0,0,0,0,0,0,0,0,0,0,0,0,0,0,0,0,0,0,0,0,0,0,0,0,0,0,0,0,0,0],"id":6,"left_children":[1,3,5,7,9,11,13,15,17,19,21,23,25,27,-1,29,31,33,35,37,-1,39,41,43,45,47,49,51,-1,53,55,57,59,-1,61,63,65,-1,67,69,-1,-1,71,73,75,77,-1,79,-1,81,83,85,-1,87,89,-1,91,93,-1,-1,-1,95,97,-1,99,101,103,-1,-1,105,-1,107,109,111,113,115,117,119,121,123,125,127,-1,129,131,-1,133,-1,-1,-1,-1,-1,-1,-1,-1,-1,-1,-1,-1,-1,-1,-1,-1,-1,-1,-1,-1,-1,-1,-1,-1,-1,-1,-1,-1,-1,-1,-1,-1,-1,-1,-1,-1,-1,-1,-1,-1,-1,-1,-1,-1,-1,-1,-1,-1],"loss_changes":[4.1291508E4,5.946422E3,6.4411455E3,4.192707E3,2.2199238E3,2.0920198E3,3.7355273E2,1.9517549E3,1.2796296E3,5.58959E2,5.460664E2,8.6031055E2,1.4027026E3,1.6282031E2,0E0,3.7133203E2,6.2815326E2,2.3815369E2,2.951017E2,7.409546E2,0E0,5.5211475E2,6.239135E2,6.666029E2,2.735957E2,1.7860681E2,8.528251E2,1.7148486E2,0E0,8.941504E2,2.1286816E2,3.591302E2,2.1865479E2,0E0,1.01730774E2,1.4828107E2,9.968077E1,0E0,7.049042E1,2.5828223E2,0E0,0E0,1.4693188E2,1.3720898E2,2.2978831E2,5.957141E1,0E0,1.7693604E2,0E0,3.70932E2,2.1774639E3,1.3579834E2,0E0,3.263916E2,3.8483167E2,0E0,3.7865234E1,2.9573984E2,0E0,0E0,0E0,1.6587567E2,6.77676E2,0E0,1.9628229E2,2.1224323E2,1.1708075E2,0E0,0E0,7.298704E1,0E0,2.1178271E2,2.0310364E0,4.3054877E2,2.0813422E2,4.1607126E2,6.3326E2,1.4513684E2,2.6326184E2,1.5368233E2,1.7149182E2,8.216841E1,0E0,4.728607E1,1.2762058E3,0E0,4.531891E2,0E0,0E0,0E0,0E0,0E0,0E0,0E0,0E0,0E0,0E0,0E0,0E0,0E0,0E0,0E0,0E0,0E0,0E0,0E0,0E0,0E0,0E0,0E0,0E0,0E0,0E0,0E0,0E0,0E0,0E0,0E0,0E0,0E0,0E0,0E0,0E0,0E0,0E0,0E0,0E0,0E0,0E0,0E0,0E0,0E0,0E0,0E0,0E0],"parents":[2147483647,0,0,1,1,2,2,3,3,4,4,5,5,6,6,7,7,8,8,9,9,10,10,11,11,12,12,13,13,15,15,16,16,17,17,18,18,19,19,21,21,22,22,23,23,24,24,25,25,26,26,27,27,29,29,30,30,31,31,32,32,34,34,35,35,36,36,38,38,39,39,42,42,43,43,44,44,45,45,47,47,49,49,50,50,51,51,53,53,54,54,56,56,57,57,61,61,62,62,64,64,65,65,66,66,69,69,71,71,72,72,73,73,74,74,75,75,76,76,77,77,78,78,79,79,80,80,81,81,83,83,84,84,86,86],"right_children":[2,4,6,8,10,12,14,16,18,20,22,24,26,28,-1,30,32,34,36,38,-1,40,42,44,46,48,50,52,-1,54,56,58,60,-1,62,64,66,-1,68,70,-1,-1,72,74,76,78,-1,80,-1,82,84,86,-1,88,90,-1,92,94,-1,-1,-1,96,98,-1,100,102,104,-1,-1,106,-1,108,110,112,114,116,118,120,122,124,126,128,-1,130,132,-1,134,-1,-1,-1,-1,-1,-1,-1,-1,-1,-1,-1,-1,-1,-1,-1,-1,-1,-1,-1,-1,-1,-1,-1,-1,-1,-1,-1,-1,-1,-1,-1,-1,-1,-1,-1,-1,-1,-1,-1,-1,-1,-1,-1,-1,-1,-1,-1,-1],"split_conditions":[5.8E1,1E0,8.8E1,1E0,4.5E1,1E0,1E0,5.1E1,4E1,1E0,1E0,7.7E1,7E1,1.08E2,5.295412E-1,1E0,1E0,3.1E1,1E0,4.3E1,-1.3347968E0,5.7E1,5E1,1E0,1E0,1E0,1E0,1E0,4.491329E-1,3.7E1,3.1E1,5.7E1,5.2E1,-6.866949E-1,3.9E1,1E0,4.8E1,-9.384947E-1,4.4E1,4.6E1,2.1858178E-1,2.512538E-1,5.5E1,6.8E1,1E0,1E0,5.1562613E-1,6.2E1,-7.323281E-1,8.6E1,7.4E1,9.1E1,4.314263E-1,3.1E1,4.1E1,-3.9923858E-2,4.3E1,5.2E1,-6.161696E-1,-1.2121582E-1,-8.127546E-1,1E0,1E0,4.1965318E-1,4.1E1,4.6E1,5.3E1,-1.6950035E-1,2.5305519E-1,1E0,-8.776116E-1,5.3E1,5.6E1,6.7E1,1E0,6.3E1,7.3E1,8.3E1,8.4E1,6E1,1E0,7.3E1,4.0678164E-1,1E0,1E0,4.4427776E-1,9.6E1,-3.695977E-1,-9.704315E-1,2.9245812E-2,-4.2849976E-1,-7.0671976E-1,-1.0185205E0,-3.8407263E-1,4.0579397E-2,-3.0815387E-1,2.2185564E-2,-1.0605272E0,3.1111318E-1,-3.3477995E-1,2.1353033E-1,3.7763007E-2,-4.4438463E-1,3.3636647E-1,-6.0178664E-2,-3.8439953E-1,5.9098817E-2,-2.8590956E-1,-8.441105E-1,-1.0673799E-1,-2.5855917E-1,1.8747722E-1,-2.7322105E-1,4.2629084E-1,1.4620213E-1,-1.9790994E-1,2.4799858E-1,-6.2014814E-2,-8.737527E-1,1.9146895E-1,4.4796944E-1,3.6022708E-1,-1.14005186E-1,-3.0719784E-1,5.844396E-2,-2.4475947E-1,-6.0283864E-1,-5.681128E-2,1.05147205E-1,4.4162455E-1,3.512249E-2,-9.12751E-1,3.3839315E-1,4.700003E-2,3.3438286E-1],"split_indices":[0,2,0,11,0,2,7,0,0,9,10,0,0,0,0,3,7,0,3,0,0,0,0,9,7,7,10,10,0,0,0,0,0,0,0,7,0,0,0,0,0,0,0,0,3,10,0,0,0,0,0,0,0,0,0,0,0,0,0,0,0,3,7,0,0,0,0,0,0,9,0,0,0,0,3,0,0,0,0,0,11,0,0,7,7,0,0,0,0,0,0,0,0,0,0,0,0,0,0,0,0,0,0,0,0,0,0,0,0,0,0,0,0,0,0,0,0,0,0,0,0,0,0,0,0,0,0,0,0,0,0,0,0,0,0],"split_type":[0,0,0,0,0,0,0,0,0,0,0,0,0,0,0,0,0,0,0,0,0,0,0,0,0,0,0,0,0,0,0,0,0,0,0,0,0,0,0,0,0,0,0,0,0,0,0,0,0,0,0,0,0,0,0,0,0,0,0,0,0,0,0,0,0,0,0,0,0,0,0,0,0,0,0,0,0,0,0,0,0,0,0,0,0,0,0,0,0,0,0,0,0,0,0,0,0,0,0,0,0,0,0,0,0,0,0,0,0,0,0,0,0,0,0,0,0,0,0,0,0,0,0,0,0,0,0,0,0,0,0,0,0,0,0],"sum_hessian":[7.77E2,2.45E2,5.32E2,1.66E2,7.9E1,2.52E2,2.8E2,1.09E2,5.7E1,4E1,3.9E1,1.57E2,9.5E1,2.08E2,7.2E1,7.5E1,3.4E1,1.9E1,3.8E1,1.7E1,2.3E1,2.2E1,1.7E1,1.03E2,5.4E1,3E1,6.5E1,1.28E2,8E1,3.9E1,3.6E1,2.8E1,6E0,3E0,1.6E1,2.1E1,1.7E1,1.5E1,2E0,2.1E1,1E0,3E0,1.4E1,6.9E1,3.4E1,3.7E1,1.7E1,2.7E1,3E0,4.7E1,1.8E1,8.5E1,4.3E1,1.6E1,2.3E1,1E0,3.5E1,2.6E1,2E0,2E0,4E0,1.4E1,2E0,1E1,1.1E1,1.1E1,6E0,1E0,1E0,3E0,1.8E1,9E0,5E0,4E1,2.9E1,1.9E1,1.5E1,2.7E1,1E1,1E1,1.7E1,3.8E1,9E0,7E0,1.1E1,1.4E1,7.1E1,5E0,1.1E1,6E0,1.7E1,2.5E1,1E1,4E0,2.2E1,7E0,7E0,1E0,1E0,1E0,1E1,9E0,2E0,3E0,3E0,2E0,1E0,5E0,4E0,3E0,2E0,3.5E1,5E0,1.2E1,1.7E1,9E0,1E1,1.3E1,2E0,1.7E1,1E1,5E0,5E0,5E0,5E0,1E1,7E0,1E1,2.8E1,6E0,1E0,9E0,2E0,1.9E1,5.2E1],"tree_param":{"num_deleted":"0","num_feature":"12","num_nodes":"135","size_leaf_vector":"1"}},{"base_weights":[2.1850328E-1,-8.835259E0,6.509638E0,-4.4080644E0,-2.3971737E1,9.206572E0,-2.5563567E0,-7.318535E-1,-1.2740853E1,-2.806482E1,-1.4275113E1,4.833761E0,4.813964E-1,-1.1281615E1,2.8703668E0,-5.656307E0,2.2205594E0,-1.7188948E1,-4.6323843E0,-1.6628437E0,-1.9709074E1,-8.434699E-1,-1.0782304E1,7.8009048E0,-3.0674736E0,-1.4773072E1,-2.356588E0,-1.8256655E-1,6.9823313E0,-1.2694904E0,-1.01375885E1,5.059446E0,-1.0351717E0,-1.975306E1,-8.371624E0,-1.9997179E1,-1.3741302E0,-1.0420852E0,1.0190373E-1,-1.1466064E0,-1.2430012E1,5.889358E0,4.556191E-1,6.265767E-1,-3.4434196E-1,-9.7858775E-1,-7.890883E0,3.0345063E0,-5.089797E0,2.457241E0,-5.8542624E0,5.043051E0,4.6546957E-1,-6.806156E0,2.3115466E0,-1.3662169E1,-3.6642184E0,2.256175E0,5.9437323E0,-4.9003873E0,3.1671824E0,-1.1950772E0,-6.277525E-1,-5.364577E-1,-3.8329792E0,-1.234708E0,-4.3172365E-1,-5.6126213E0,2.3570142E0,2.5803566E-2,-1.11799054E-1,-7.5513595E-1,-6.202218E0,7.61346E0,3.323919E0,1.4935723E-1,-1.3004932E0,2.2728443E-1,-9.19721E0,3.362891E-1,-8.341357E-2,-7.4156876E0,3.3793315E-1,1.3752666E-1,6.618974E0,-9.752083E-2,-7.5715327E0,-1.7433802E0,6.000316E0,-1.22309364E-1,-6.1058754E-1,2.482659E-1,-1.03669085E-1,-8.4983677E-1,-4.542795E-1,-4.9615747E-1,-3.9711207E-2,1.9472764E-1,-1.8162985E-1,2.4928668E-1,3.6141676E-1,-4.9400565E-1,8.0272906E-2,2.2760077E-1,-1.1037985E-1,-4.7430515E-1,6.8255424E-2,-6.7868316E-1,-7.25378E-2,-3.264105E-1,1.7713316E-1,2.7478942E-1,-7.9164094E-1,4.093151E-1,1.0441017E-1,3.9567947E-2,2.0893358E-1,-1.1565037E-1,-9.599305E-3,-8.137399E-1,-3.2154247E-1,-9.657647E-2,-6.208482E-1,-2.1924524E-1,1.5705103E-1,4.496637E-1,4.04603E-2,-4.7407024E-2,6.135845E-2,-5.151761E-1,-2.0164764E-1,1.13938145E-1,-2.4469166E-1,1.5453911E-1,4.6498027E-1],"categories":[],"categories_nodes":[],"categories_segments":[],"categories_sizes":[],"default_left":[0,0,0,0,0,0,0,0,0,0,0,0,0,0,0,0,0,0,0,0,0,0,0,0,0,0,0,0,0,0,0,0,0,0,0,0,0,0,0,0,0,0,0,0,0,0,0,0,0,0,0,0,0,0,0,0,0,0,0,0,0,0,0,0,0,0,0,0,0,0,0,0,0,0,0,0,0,0,0,0,0,0,0,0,0,0,0,0,0,0,0,0,0,0,0,0,0,0,0,0,0,0,0,0,0,0,0,0,0,0,0,0,0,0,0,0,0,0,0,0,0,0,0,0,0,0,0,0,0,0,0,0,0,0,0],"id":7,"left_children":[1,3,5,7,9,11,13,15,17,19,21,23,-1,25,27,29,31,33,35,-1,37,-1,39,41,43,45,47,49,51,53,55,57,59,61,63,65,67,-1,-1,69,71,73,-1,75,-1,-1,77,79,81,83,85,87,-1,89,91,93,95,97,99,101,103,-1,-1,-1,105,-1,-1,107,109,-1,-1,-1,111,113,115,-1,117,-1,119,-1,-1,121,-1,123,125,127,129,131,133,-1,-1,-1,-1,-1,-1,-1,-1,-1,-1,-1,-1,-1,-1,-1,-1,-1,-1,-1,-1,-1,-1,-1,-1,-1,-1,-1,-1,-1,-1,-1,-1,-1,-1,-1,-1,-1,-1,-1,-1,-1,-1,-1,-1,-1,-1],"loss_changes":[4.5567305E4,2.187431E4,1.1564117E4,7.8021143E3,2.5363633E3,6.241328E2,5.193485E3,2.6005059E3,2.7336182E3,1.5570938E3,3.5581543E1,8.2102856E2,0E0,1.2739634E3,8.549164E2,1.3042539E3,1.0404143E3,9.650654E2,1.424331E3,0E0,5.8436914E2,0E0,1.9214624E2,9.007568E0,1.4540442E2,8.363242E2,2.0699988E2,6.132727E2,8.3924194E1,7.096779E2,7.0286426E2,1.3532361E2,8.763997E2,8.34625E2,9.797534E1,5.363086E1,4.085896E2,0E0,0E0,6.587762E0,8.9425415E1,3.2193512E1,0E0,3.1178635E1,0E0,0E0,2.6925494E2,9.801666E1,2.9814407E2,2.6940262E2,1.2777811E2,1.2739627E2,0E0,3.000829E2,2.6630017E2,1.6605347E2,2.2563902E2,1.6851587E2,1.9340576E1,9.229871E2,2.035715E2,0E0,0E0,0E0,1.8926215E2,0E0,0E0,3.7790134E2,1.706138E2,0E0,0E0,0E0,6.50308E2,5.061035E0,1.1846153E1,0E0,4.0454516E0,0E0,1.4986829E2,0E0,0E0,1.9543863E2,0E0,2.718519E2,1.3066394E2,5.6707573E0,5.5119995E1,4.9166603E1,1.2484723E2,0E0,0E0,0E0,0E0,0E0,0E0,0E0,0E0,0E0,0E0,0E0,0E0,0E0,0E0,0E0,0E0,0E0,0E0,0E0,0E0,0E0,0E0,0E0,0E0,0E0,0E0,0E0,0E0,0E0,0E0,0E0,0E0,0E0,0E0,0E0,0E0,0E0,0E0,0E0,0E0,0E0,0E0,0E0,0E0,0E0,0E0],"parents":[2147483647,0,0,1,1,2,2,3,3,4,4,5,5,6,6,7,7,8,8,9,9,10,10,11,11,13,13,14,14,15,15,16,16,17,17,18,18,20,20,22,22,23,23,24,24,25,25,26,26,27,27,28,28,29,29,30,30,31,31,32,32,33,33,34,34,35,35,36,36,39,39,40,40,41,41,43,43,46,46,47,47,48,48,49,49,50,50,51,51,53,53,54,54,55,55,56,56,57,57,58,58,59,59,60,60,64,64,67,67,68,68,72,72,73,73,74,74,76,76,78,78,81,81,83,83,84,84,85,85,86,86,87,87,88,88],"right_children":[2,4,6,8,10,12,14,16,18,20,22,24,-1,26,28,30,32,34,36,-1,38,-1,40,42,44,46,48,50,52,54,56,58,60,62,64,66,68,-1,-1,70,72,74,-1,76,-1,-1,78,80,82,84,86,88,-1,90,92,94,96,98,100,102,104,-1,-1,-1,106,-1,-1,108,110,-1,-1,-1,112,114,116,-1,118,-1,120,-1,-1,122,-1,124,126,128,130,132,134,-1,-1,-1,-1,-1,-1,-1,-1,-1,-1,-1,-1,-1,-1,-1,-1,-1,-1,-1,-1,-1,-1,-1,-1,-1,-1,-1,-1,-1,-1,-1,-1,-1,-1,-1,-1,-1,-1,-1,-1,-1,-1,-1,-1,-1,-1],"split_conditions":[6.8E1,1E0,1E0,1E0,1E0,7.2E1,8.9E1,4.4E1,1E0,5.1E1,5.6E1,1E0,4.813964E-1,1E0,1.08E2,1E0,1E0,5.5E1,3.7E1,-1.6628437E0,6.7E1,-8.434699E-1,6E1,7E1,1E0,1E0,7.5E1,1E0,1E0,3.4E1,1E0,5.1E1,1E0,1E0,6.3E1,1E0,1E0,-1.0420852E0,1.0190373E-1,5.9E1,1E0,1E0,4.556191E-1,1E0,-3.4434196E-1,-9.7858775E-1,7.3E1,1E0,8.7E1,1E0,9.3E1,1.1E2,4.6546957E-1,1E0,1E0,1E0,3.7E1,4.8E1,1E0,1E0,1E0,-1.1950772E0,-6.277525E-1,-5.364577E-1,1E0,-1.234708E0,-4.3172365E-1,1E0,4.1E1,2.5803566E-2,-1.11799054E-1,-7.5513595E-1,6.4E1,1E0,1E0,1.4935723E-1,6.9E1,2.2728443E-1,7.5E1,3.362891E-1,-8.341357E-2,7.8E1,3.3793315E-1,1E0,9.6E1,9.2E1,1E0,1.09E2,1E0,-1.22309364E-1,-6.1058754E-1,2.482659E-1,-1.03669085E-1,-8.4983677E-1,-4.542795E-1,-4.9615747E-1,-3.9711207E-2,1.9472764E-1,-1.8162985E-1,2.4928668E-1,3.6141676E-1,-4.9400565E-1,8.0272906E-2,2.2760077E-1,-1.1037985E-1,-4.7430515E-1,6.8255424E-2,-6.7868316E-1,-7.25378E-2,-3.264105E-1,1.7713316E-1,2.7478942E-1,-7.9164094E-1,4.093151E-1,1.0441017E-1,3.9567947E-2,2.0893358E-1,-1.1565037E-1,-9.599305E-3,-8.137399E-1,-3.2154247E-1,-9.657647E-2,-6.208482E-1,-2.1924524E-1,1.5705103E-1,4.496637E-1,4.04603E-2,-4.7407024E-2,6.135845E-2,-5.151761E-1,-2.0164764E-1,1.13938145E-1,-2.4469166E-1,1.5453911E-1,4.6498027E-1],"split_indices":[0,5,5,7,11,0,0,0,11,0,0,7,0,4,0,6,6,0,0,0,0,0,0,0,9,3,0,9,4,0,4,0,4,4,0,4,4,0,0,0,3,6,0,11,0,0,0,9,0,4,0,0,0,9,9,3,0,0,3,3,9,0,0,0,9,0,0,3,0,0,0,0,0,9,3,0,0,0,0,0,0,0,0,3,0,0,4,0,3,0,0,0,0,0,0,0,0,0,0,0,0,0,0,0,0,0,0,0,0,0,0,0,0,0,0,0,0,0,0,0,0,0,0,0,0,0,0,0,0,0,0,0,0,0,0],"split_type":[0,0,0,0,0,0,0,0,0,0,0,0,0,0,0,0,0,0,0,0,0,0,0,0,0,0,0,0,0,0,0,0,0,0,0,0,0,0,0,0,0,0,0,0,0,0,0,0,0,0,0,0,0,0,0,0,0,0,0,0,0,0,0,0,0,0,0,0,0,0,0,0,0,0,0,0,0,0,0,0,0,0,0,0,0,0,0,0,0,0,0,0,0,0,0,0,0,0,0,0,0,0,0,0,0,0,0,0,0,0,0,0,0,0,0,0,0,0,0,0,0,0,0,0,0,0,0,0,0,0,0,0,0,0,0],"sum_hessian":[7.98E2,3.27E2,4.71E2,2.54E2,7.3E1,3.63E2,1.08E2,1.77E2,7.7E1,5E1,2.3E1,3.3E1,3.3E2,4.1E1,6.7E1,6.6E1,1.11E2,4.9E1,2.8E1,2.9E1,2.1E1,1.1E1,1.2E1,2.4E1,9E0,2.9E1,1.2E1,3.9E1,2.8E1,3.4E1,3.2E1,5.9E1,5.2E1,3.7E1,1.2E1,4E0,2.4E1,2E1,1E0,2E0,1E1,1.2E1,1.2E1,5E0,4E0,1.6E1,1.3E1,4E0,8E0,2.7E1,1.2E1,1.7E1,1.1E1,1.3E1,2.1E1,2E1,1.2E1,1.5E1,4.4E1,2.7E1,2.5E1,2.2E1,1.5E1,7E0,5E0,2E0,2E0,1.1E1,1.3E1,1E0,1E0,6E0,4E0,6E0,6E0,2E0,3E0,1E0,1.2E1,2E0,2E0,7E0,1E0,1.8E1,9E0,3E0,9E0,2E0,1.5E1,8E0,5E0,1.3E1,8E0,1E1,1E1,3E0,9E0,1.2E1,3E0,2.8E1,1.6E1,1.5E1,1.2E1,2E1,5E0,2E0,3E0,3E0,8E0,1E0,1.2E1,2E0,2E0,5E0,1E0,2E0,4E0,1E0,2E0,2E0,1E1,4E0,3E0,7E0,1.1E1,6E0,3E0,2E0,1E0,4E0,5E0,1E0,1E0,9E0,6E0],"tree_param":{"num_deleted":"0","num_feature":"12","num_nodes":"135","size_leaf_vector":"1"}},{"base_weights":[4.5901857E-2,-1.0703439E1,4.4698057E0,-6.68435E0,-2.5823154E1,7.603143E0,-4.9614644E0,-1.0423664E1,1.0227135E0,-2.1823915E1,-1.7131199E0,2.949059E0,4.56068E-1,-1.2502299E1,2.440737E0,-6.060911E0,-1.932057E1,3.5158453E0,-3.0712385E0,-1.1885122E0,-5.0026245E0,-1.0567329E-1,7.1601496E0,-9.180591E0,-8.949155E-1,5.6264434E0,-3.900877E0,-1.0845845E1,-2.3988414E0,-2.0526814E1,-3.2651278E-1,2.734436E-1,3.2912275E-1,-8.615542E0,3.1910276E0,-2.3670425E0,-3.886238E-1,2.1264508E0,-7.3902335E0,3.0594566E-1,4.2575955E-1,-1.381602E1,-5.9868555E0,3.735253E0,4.33799E-1,-8.284021E0,4.8118267E0,-7.0132273E-1,-8.758095E0,-2.2088079E-1,-6.2585006E0,-1.226446E0,-7.7221733E-1,2.3923485E0,-2.5821457E0,-7.7812093E-1,-4.9752383E0,3.221676E-1,1.3909917E0,-1.5823874E-1,6.5383915E-4,-2.4968262E-1,3.6396577E0,-2.3653626E0,-7.266657E-1,-5.7257032E0,-7.85928E-1,3.8161151E0,-8.188146E0,5.6648498E0,2.6006706E0,-6.2217426E-1,1.4155756E0,-5.990162E-1,7.6170845E0,-3.4088796E-1,-6.0145444E-1,6.2418886E-2,-1.8625066E-1,5.2414097E-2,-6.8408793E-1,1.7807117E-1,2.1679688E-3,-2.4664478E-1,-2.9231071E-2,2.7654934E-1,-3.3785754E-1,-6.0168374E-1,2.286642E-1,-2.625881E-1,8.838975E-2,2.3710334E-1,7.637024E-4,-2.6721886E-1,2.5568834E-2,-4.6833253E-1,-8.809408E-3,-1.1632671E-1,2.754976E-1,-7.796218E-1,-2.4269019E-1,4.0020028E-1,1.1907762E-1,-1.2199383E-1,1.7624806E-1,-9.726105E-2,1.2383896E-1,2.1411954E-1,-1.8268077E-1,1.5782152E-1,4.529152E-1],"categories":[],"categories_nodes":[],"categories_segments":[],"categories_sizes":[],"default_left":[0,0,0,0,0,0,0,0,0,0,0,0,0,0,0,0,0,0,0,0,0,0,0,0,0,0,0,0,0,0,0,0,0,0,0,0,0,0,0,0,0,0,0,0,0,0,0,0,0,0,0,0,0,0,0,0,0,0,0,0,0,0,0,0,0,0,0,0,0,0,0,0,0,0,0,0,0,0,0,0,0,0,0,0,0,0,0,0,0,0,0,0,0,0,0,0,0,0,0,0,0,0,0,0,0,0,0,0,0,0,0],"id":8,"left_children":[1,3,5,7,9,11,13,15,17,19,-1,21,-1,23,25,27,29,31,33,-1,35,37,39,41,-1,43,45,47,49,51,-1,53,-1,55,57,59,-1,61,63,-1,-1,65,67,69,-1,71,73,-1,75,77,79,-1,-1,81,83,-1,85,-1,87,-1,-1,89,91,93,-1,95,-1,97,99,101,103,-1,105,107,109,-1,-1,-1,-1,-1,-1,-1,-1,-1,-1,-1,-1,-1,-1,-1,-1,-1,-1,-1,-1,-1,-1,-1,-1,-1,-1,-1,-1,-1,-1,-1,-1,-1,-1,-1,-1],"loss_changes":[3.832885E4,1.4107742E4,1.6911547E4,5.399839E3,9.06041E2,3.004373E3,8.0125996E3,4.773589E3,6.4361725E2,1.0597188E3,0E0,1.3771785E3,0E0,1.1082852E3,1.496732E3,1.4809402E3,4.985127E2,3.859841E2,8.6077026E2,0E0,1.8103065E1,1.0400977E3,1.1387695E1,5.982849E2,0E0,2.5018835E2,9.945873E2,1.2284668E2,4.1892685E2,3.7376758E2,0E0,1.2719184E2,0E0,2.5132684E2,6.1288948E1,7.6361732E0,0E0,1.7709227E2,5.0401917E2,0E0,0E0,1.8705884E2,6.5704333E2,5.5324738E1,0E0,7.034817E2,1.4117203E2,0E0,7.665918E1,1.7454993E2,9.906646E2,0E0,0E0,3.27993E1,3.937724E1,0E0,2.2458543E2,0E0,4.3952432E2,0E0,0E0,2.111157E2,1.1979419E2,8.843147E1,0E0,9.93772E1,0E0,7.524695E1,5.1683984E2,6.541965E1,1.11096924E2,0E0,2.6216816E1,7.528918E1,9.980774E0,0E0,0E0,0E0,0E0,0E0,0E0,0E0,0E0,0E0,0E0,0E0,0E0,0E0,0E0,0E0,0E0,0E0,0E0,0E0,0E0,0E0,0E0,0E0,0E0,0E0,0E0,0E0,0E0,0E0,0E0,0E0,0E0,0E0,0E0,0E0,0E0],"parents":[2147483647,0,0,1,1,2,2,3,3,4,4,5,5,6,6,7,7,8,8,9,9,11,11,13,13,14,14,15,15,16,16,17,17,18,18,20,20,21,21,22,22,23,23,25,25,26,26,27,27,28,28,29,29,31,31,33,33,34,34,35,35,37,37,38,38,41,41,42,42,43,43,45,45,46,46,48,48,49,49,50,50,53,53,54,54,56,56,58,58,61,61,62,62,63,63,65,65,67,67,68,68,69,69,70,70,72,72,73,73,74,74],"right_children":[2,4,6,8,10,12,14,16,18,20,-1,22,-1,24,26,28,30,32,34,-1,36,38,40,42,-1,44,46,48,50,52,-1,54,-1,56,58,60,-1,62,64,-1,-1,66,68,70,-1,72,74,-1,76,78,80,-1,-1,82,84,-1,86,-1,88,-1,-1,90,92,94,-1,96,-1,98,100,102,104,-1,106,108,110,-1,-1,-1,-1,-1,-1,-1,-1,-1,-1,-1,-1,-1,-1,-1,-1,-1,-1,-1,-1,-1,-1,-1,-1,-1,-1,-1,-1,-1,-1,-1,-1,-1,-1,-1,-1],"split_conditions":[5.6E1,1E0,1E0,1E0,1E0,7.1E1,8.8E1,1E0,1E0,5.4E1,-1.7131199E0,1E0,4.56068E-1,1E0,1E0,4E1,5.3E1,3.9E1,1E0,-1.1885122E0,1E0,1E0,6.4E1,6.8E1,-8.949155E-1,1.1E2,1.07E2,3.3E1,1E0,1E0,-3.2651278E-1,1E0,3.2912275E-1,3.4E1,3.6E1,5.5E1,-3.886238E-1,6.3E1,1E0,3.0594566E-1,4.2575955E-1,5.9E1,7.3E1,9.3E1,4.33799E-1,1E0,1.15E2,-7.0132273E-1,1E0,1E0,4.7E1,-1.226446E0,-7.7221733E-1,1E0,3.3E1,-7.7812093E-1,3.5E1,3.221676E-1,3.8E1,-1.5823874E-1,6.5383915E-4,1E0,6.9E1,6.3E1,-7.266657E-1,5.7E1,-7.85928E-1,6.9E1,7.6E1,1E0,9.4E1,-6.2217426E-1,9.5E1,1.08E2,1.17E2,-3.4088796E-1,-6.0145444E-1,6.2418886E-2,-1.8625066E-1,5.2414097E-2,-6.8408793E-1,1.7807117E-1,2.1679688E-3,-2.4664478E-1,-2.9231071E-2,2.7654934E-1,-3.3785754E-1,-6.0168374E-1,2.286642E-1,-2.625881E-1,8.838975E-2,2.3710334E-1,7.637024E-4,-2.6721886E-1,2.5568834E-2,-4.6833253E-1,-8.809408E-3,-1.1632671E-1,2.754976E-1,-7.796218E-1,-2.4269019E-1,4.0020028E-1,1.1907762E-1,-1.2199383E-1,1.7624806E-1,-9.726105E-2,1.2383896E-1,2.1411954E-1,-1.8268077E-1,1.5782152E-1,4.529152E-1],"split_indices":[0,5,5,8,2,0,0,2,2,0,0,8,0,2,2,0,0,0,10,0,3,2,0,0,0,0,0,0,3,6,0,10,0,0,0,0,0,0,10,0,0,0,0,0,0,10,0,0,10,10,0,0,0,3,0,0,0,0,0,0,0,6,0,0,0,0,0,0,0,3,0,0,0,0,0,0,0,0,0,0,0,0,0,0,0,0,0,0,0,0,0,0,0,0,0,0,0,0,0,0,0,0,0,0,0,0,0,0,0,0,0],"split_type":[0,0,0,0,0,0,0,0,0,0,0,0,0,0,0,0,0,0,0,0,0,0,0,0,0,0,0,0,0,0,0,0,0,0,0,0,0,0,0,0,0,0,0,0,0,0,0,0,0,0,0,0,0,0,0,0,0,0,0,0,0,0,0,0,0,0,0,0,0,0,0,0,0,0,0,0,0,0,0,0,0,0,0,0,0,0,0,0,0,0,0,0,0,0,0,0,0,0,0,0,0,0,0,0,0,0,0,0,0,0,0],"sum_hessian":[8.04E2,2.34E2,5.7E2,1.86E2,4.8E1,4.28E2,1.42E2,1.25E2,6.1E1,3.5E1,1.3E1,1.06E2,3.22E2,7E1,7.2E1,8.5E1,4E1,3.8E1,2.3E1,3.1E1,4E0,6.2E1,4.4E1,4.5E1,2.5E1,4.8E1,2.4E1,3.6E1,4.9E1,3.6E1,4E0,1.9E1,1.9E1,1.2E1,1.1E1,3E0,1E0,4.8E1,1.4E1,2.8E1,1.6E1,1.7E1,2.8E1,3.1E1,1.7E1,1.6E1,8E0,1.2E1,2.4E1,3.2E1,1.7E1,1.8E1,1.8E1,1.1E1,8E0,3E0,9E0,3E0,8E0,2E0,1E0,1.9E1,2.9E1,9E0,5E0,4E0,1.3E1,5E0,2.3E1,1E1,2.1E1,1.1E1,5E0,3E0,5E0,1.7E1,7E0,2.3E1,9E0,9E0,8E0,7E0,4E0,3E0,5E0,1E0,8E0,1E0,7E0,5E0,1.4E1,2.2E1,7E0,4E0,5E0,2E0,2E0,1E0,4E0,6E0,1.7E1,5E0,5E0,3E0,1.8E1,1E0,4E0,1E0,2E0,2E0,3E0],"tree_param":{"num_deleted":"0","num_feature":"12","num_nodes":"111","size_leaf_vector":"1"}},{"base_weights":[7.628282E-2,-7.638475E0,5.706713E0,-3.8820276E0,-2.0609066E1,8.175788E0,-3.015202E0,-8.075017E0,2.8402815E0,-1.2773765E0,-1.5649221E1,3.6389782E0,8.671707E0,-1.1536559E1,3.3908138E0,-1.067599E1,-1.1330417E0,-5.473408E-1,3.1533018E-1,3.0334473E-3,-8.026797E-1,6.547177E0,-2.2336326E0,7.5884542E0,4.4429326E-1,-5.94434E0,-1.2433889E1,-1.12252176E-1,7.8413305E0,-1.3553755E1,-7.514922E0,-4.190283E0,8.727932E-1,2.655047E0,-5.4011064E0,3.946563E-1,4.116594E0,5.4604876E-1,-4.312214E-1,4.3415508E-1,4.9650044E0,-1.1495751E1,-3.1434327E-1,-9.800867E0,-8.883204E-1,6.1944003E0,-1.6849062E0,5.6225543E0,4.546798E-1,-1.0282882E1,-9.368021E-1,-1.0812915E1,-4.0763655E0,-7.4063416E0,3.4762256E0,3.2043924E0,-3.0218956E0,5.810359E0,-4.7083753E-1,-6.501512E-1,-2.847536E0,5.305837E0,1.628334E0,-2.6053135E0,4.218474E0,3.053603E0,3.725203E-1,-6.9077104E-1,-1.1341858E-1,-2.477993E0,2.0850639E-1,-1.0888683E1,2.531222E0,4.6348563E-1,-4.979604E-2,-3.7380383E0,3.9151783E0,7.0453997E0,-4.972242E-2,-3.0435187E-1,-7.6773685E-1,-7.5679064E-1,-4.7579095E-1,1.896129E-1,-2.7163896E-1,-4.5474687E-1,-1.4428002E-1,3.694955E-1,-1.6404724E-2,2.6249138E-1,-4.3148996E-4,-2.9254505E-1,3.236209E-1,3.5114327E-1,2.085619E-2,-8.409968E-2,1.3861679E-1,4.7122817E-3,-6.215944E-1,9.531689E-2,3.689439E-1,2.8563863E-1,-4.1048434E-2,-1.6048676E-1,1.0419846E-2,1.1372461E-1,2.9986E-1,-1.4047337E-2,2.0410314E-1,1.9898777E-1,-2.9785806E-1,-5.759818E-1,-2.348138E-1,3.3555204E-1,-1.4571038E-1,-2.5173852E-1,7.092285E-2,2.7842185E-1,4.3490507E-2,3.9833647E-1,1.1200269E-1],"categories":[],"categories_nodes":[],"categories_segments":[],"categories_sizes":[],"default_left":[0,0,0,0,0,0,0,0,0,0,0,0,0,0,0,0,0,0,0,0,0,0,0,0,0,0,0,0,0,0,0,0,0,0,0,0,0,0,0,0,0,0,0,0,0,0,0,0,0,0,0,0,0,0,0,0,0,0,0,0,0,0,0,0,0,0,0,0,0,0,0,0,0,0,0,0,0,0,0,0,0,0,0,0,0,0,0,0,0,0,0,0,0,0,0,0,0,0,0,0,0,0,0,0,0,0,0,0,0,0,0,0,0,0,0,0,0,0,0,0,0],"id":9,"left_children":[1,3,5,7,9,11,13,15,17,-1,19,21,23,25,27,29,31,33,-1,-1,-1,35,37,39,-1,41,43,45,47,49,51,53,55,57,59,-1,61,63,-1,-1,65,67,69,71,-1,73,75,77,-1,79,-1,81,83,85,87,89,91,93,95,-1,97,99,101,103,105,107,-1,-1,-1,109,-1,111,113,-1,-1,115,117,119,-1,-1,-1,-1,-1,-1,-1,-1,-1,-1,-1,-1,-1,-1,-1,-1,-1,-1,-1,-1,-1,-1,-1,-1,-1,-1,-1,-1,-1,-1,-1,-1,-1,-1,-1,-1,-1,-1,-1,-1,-1,-1,-1],"loss_changes":[3.4489457E4,1.6242314E4,9.909244E3,7.3796304E3,1.437252E3,7.7390625E2,5.6070894E3,2.8949023E3,1.1894534E3,0E0,2.5508105E2,6.465366E2,7.2695312E0,1.4688379E2,9.20717E2,9.624697E2,2.7961166E2,8.2260944E2,0E0,0E0,0E0,4.929309E1,2.3564621E2,1.2919336E2,0E0,2.4642181E2,3.4537744E2,3.476552E2,2.1111816E1,8.2437695E2,6.1366187E2,4.695531E2,2.6394724E2,3.1835626E2,3.7062592E2,0E0,2.391095E1,1.2672188E2,0E0,0E0,7.2261475E1,5.427942E1,5.8847675E1,3.8976782E2,0E0,1.6401929E2,3.3657104E2,1.1998593E2,0E0,7.364829E2,0E0,1.857959E1,3.407957E2,7.2993774E1,9.175805E1,1.183418E2,3.333235E2,1.0169989E2,7.143887E1,0E0,4.8048785E2,3.5264465E1,5.471014E1,1.0872902E1,3.648468E0,4.572969E1,0E0,0E0,0E0,1.135784E2,0E0,4.357837E1,8.784009E1,0E0,0E0,1.4756E2,3.543477E1,2.6427185E1,0E0,0E0,0E0,0E0,0E0,0E0,0E0,0E0,0E0,0E0,0E0,0E0,0E0,0E0,0E0,0E0,0E0,0E0,0E0,0E0,0E0,0E0,0E0,0E0,0E0,0E0,0E0,0E0,0E0,0E0,0E0,0E0,0E0,0E0,0E0,0E0,0E0,0E0,0E0,0E0,0E0,0E0,0E0],"parents":[2147483647,0,0,1,1,2,2,3,3,4,4,5,5,6,6,7,7,8,8,10,10,11,11,12,12,13,13,14,14,15,15,16,16,17,17,21,21,22,22,23,23,25,25,26,26,27,27,28,28,29,29,30,30,31,31,32,32,33,33,34,34,36,36,37,37,40,40,41,41,42,42,43,43,45,45,46,46,47,47,49,49,51,51,52,52,53,53,54,54,55,55,56,56,57,57,58,58,60,60,61,61,62,62,63,63,64,64,65,65,69,69,71,71,72,72,75,75,76,76,77,77],"right_children":[2,4,6,8,10,12,14,16,18,-1,20,22,24,26,28,30,32,34,-1,-1,-1,36,38,40,-1,42,44,46,48,50,52,54,56,58,60,-1,62,64,-1,-1,66,68,70,72,-1,74,76,78,-1,80,-1,82,84,86,88,90,92,94,96,-1,98,100,102,104,106,108,-1,-1,-1,110,-1,112,114,-1,-1,116,118,120,-1,-1,-1,-1,-1,-1,-1,-1,-1,-1,-1,-1,-1,-1,-1,-1,-1,-1,-1,-1,-1,-1,-1,-1,-1,-1,-1,-1,-1,-1,-1,-1,-1,-1,-1,-1,-1,-1,-1,-1,-1,-1,-1],"split_conditions":[6.8E1,1E0,1E0,1E0,4.6E1,7.2E1,8.9E1,5.5E1,5.1E1,-1.2773765E0,4.7E1,1E0,8.2E1,7.1E1,1.08E2,1E0,1E0,1E0,3.1533018E-1,3.0334473E-3,-8.026797E-1,1E0,1E0,1E0,4.4429326E-1,6.9E1,1E0,9.2E1,1.13E2,1E0,4E1,6.5E1,1E0,1E0,3.4E1,3.946563E-1,1E0,7E1,-4.312214E-1,4.3415508E-1,1E0,1E0,1E0,8.7E1,-8.883204E-1,1E0,1E0,1.12E2,4.546798E-1,1E0,-9.368021E-1,3.2E1,4.2E1,1E0,6.6E1,1E0,1E0,4.5E1,4.4E1,-6.501512E-1,4.7E1,6.9E1,6.9E1,1E0,1E0,7.6E1,3.725203E-1,-6.9077104E-1,-1.1341858E-1,7E1,2.0850639E-1,8.4E1,8.8E1,4.6348563E-1,-4.979604E-2,1E0,9.6E1,1E0,-4.972242E-2,-3.0435187E-1,-7.6773685E-1,-7.5679064E-1,-4.7579095E-1,1.896129E-1,-2.7163896E-1,-4.5474687E-1,-1.4428002E-1,3.694955E-1,-1.6404724E-2,2.6249138E-1,-4.3148996E-4,-2.9254505E-1,3.236209E-1,3.5114327E-1,2.085619E-2,-8.409968E-2,1.3861679E-1,4.7122817E-3,-6.215944E-1,9.531689E-2,3.689439E-1,2.8563863E-1,-4.1048434E-2,-1.6048676E-1,1.0419846E-2,1.1372461E-1,2.9986E-1,-1.4047337E-2,2.0410314E-1,1.9898777E-1,-2.9785806E-1,-5.759818E-1,-2.348138E-1,3.3555204E-1,-1.4571038E-1,-2.5173852E-1,7.092285E-2,2.7842185E-1,4.3490507E-2,3.9833647E-1,1.1200269E-1],"split_indices":[0,5,5,8,0,0,0,0,0,0,0,7,0,0,0,6,6,9,0,0,0,6,9,7,0,0,10,0,0,9,0,0,10,10,0,0,9,0,0,0,3,10,10,0,0,9,10,0,0,10,0,0,0,3,0,9,3,0,0,0,0,0,0,10,3,0,0,0,0,0,0,0,0,0,0,3,0,9,0,0,0,0,0,0,0,0,0,0,0,0,0,0,0,0,0,0,0,0,0,0,0,0,0,0,0,0,0,0,0,0,0,0,0,0,0,0,0,0,0,0,0],"split_type":[0,0,0,0,0,0,0,0,0,0,0,0,0,0,0,0,0,0,0,0,0,0,0,0,0,0,0,0,0,0,0,0,0,0,0,0,0,0,0,0,0,0,0,0,0,0,0,0,0,0,0,0,0,0,0,0,0,0,0,0,0,0,0,0,0,0,0,0,0,0,0,0,0,0,0,0,0,0,0,0,0,0,0,0,0,0,0,0,0,0,0,0,0,0,0,0,0,0,0,0,0,0,0,0,0,0,0,0,0,0,0,0,0,0,0,0,0,0,0,0,0],"sum_hessian":[7.92E2,3.34E2,4.58E2,2.6E2,7.4E1,3.57E2,1.01E2,1.6E2,1E2,3.5E1,3.9E1,3.6E1,3.21E2,4.3E1,5.8E1,1.16E2,4.4E1,5.1E1,4.9E1,1E0,3.8E1,2.4E1,1.2E1,5.9E1,2.62E2,7E0,3.6E1,3.3E1,2.5E1,5.9E1,5.7E1,1.7E1,2.7E1,3.1E1,2E1,1.4E1,1E1,9E0,3E0,4E1,1.9E1,3E0,4E0,2.6E1,1E1,6E0,2.7E1,1.1E1,1.4E1,3.8E1,2.1E1,2.8E1,2.9E1,1.2E1,5E0,1.7E1,1E1,1.5E1,1.6E1,4E0,1.6E1,6E0,4E0,5E0,4E0,1.2E1,7E0,2E0,1E0,3E0,1E0,2.4E1,2E0,4E0,2E0,2E1,7E0,9E0,2E0,2.2E1,1.6E1,4E0,2.4E1,4E0,2.5E1,8E0,4E0,2E0,3E0,1E1,7E0,8E0,2E0,1.2E1,3E0,1.2E1,4E0,1.3E1,3E0,3E0,3E0,1E0,3E0,4E0,1E0,3E0,1E0,3E0,9E0,1E0,2E0,2.1E1,3E0,1E0,1E0,1.6E1,4E0,4E0,3E0,7E0,2E0],"tree_param":{"num_deleted":"0","num_feature":"12","num_nodes":"121","size_leaf_vector":"1"}},{"base_weights":[-1.4488843E-1,-9.547457E0,3.925384E0,-5.908023E0,-2.3275734E1,6.694833E0,-5.230947E0,-9.67776E0,1.6067312E0,-2.711006E1,-9.982314E0,2.3149776E0,4.1123366E-1,-1.2454189E1,2.8779082E0,-1.3335293E1,-4.1123753E0,3.7075891E0,-2.7635114E0,-2.7845278E1,2.0704461E-2,-6.9141227E-1,-4.7103386E0,-7.666903E-1,3.209276E-1,-1.4500594E1,-7.330189E0,-5.897205E-1,6.9637394E0,-1.8047375E1,-7.3365498E0,-7.737048E0,1.3468025E0,-1.2220513E0,4.973945E0,-5.9385204E0,4.8884397E0,-1.5536432E0,-1.004639E0,-9.455953E0,1.2128601E0,-3.7208216E0,3.6381962E0,-1.7845451E1,-9.943562E0,-1.3794356E1,-3.3939543E0,-5.0686917E0,5.720154E0,7.9841704E0,3.8089845E0,-1.914062E1,-5.9105883E0,-5.8322334E-1,-3.6897295E0,-3.288426E0,-5.507199E-1,-6.6071534E0,4.074857E0,-3.4794998E0,1.7312973E0,3.936799E0,3.3600852E-1,-9.461495E0,1.5100199E0,-8.385887E-2,3.1311196E-1,7.5798035E-2,-9.512801E-1,3.2008478E-1,-3.5884115E-1,-4.78825E-1,-5.467357E-1,1.6637639E0,5.636526E0,-1.0269119E0,-1.33656645E1,-1.3286978E1,-4.268422E0,-4.7039796E-2,-1.549618E1,1.7483618E0,-7.0164275E0,-8.685267E0,1.8939018E0,3.565825E0,4.1786715E-1,4.09398E-1,9.770985E-2,-5.0598984E0,3.532897E-1,-1.0504117E0,-6.894686E-1,-6.411705E-2,-3.3735323E-1,1.2178315E-1,-3.82328E-1,1.8312512E-1,-2.6656833E-1,-5.6755956E-2,-4.5296955E-1,2.3274557E-1,-1.3015023E-1,-2.7178153E-1,-5.7126332E-2,2.2143984E-1,-2.2646752E-1,1.1801734E-1,2.4152055E-1,-5.1209414E-1,-1.9832522E-1,-2.717827E-1,3.170885E-1,1.20661736E-1,-1.1497688E-1,1.4781816E-1,-2.005391E-1,-2.3551166E-1,2.660893E-1,3.522212E-1,9.875031E-2,-7.037135E-1,-1.215601E-1,-7.9321414E-1,-2.7374864E-1,3.1858343E-1,-3.862452E-1,-8.808476E-1,-6.928883E-2,1.70318E-1,-7.988777E-2,-6.7579365E-1,-1.614302E-1,-7.1798176E-1,6.369152E-2,3.358459E-1,-2.3041716E-1,2.5431007E-1,-2.5293905E-1,5.6113053E-2,-4.3560544E-1],"categories":[],"categories_nodes":[],"categories_segments":[],"categories_sizes":[],"default_left":[0,0,0,0,0,0,0,0,0,0,0,0,0,0,0,0,0,0,0,0,0,0,0,0,0,0,0,0,0,0,0,0,0,0,0,0,0,0,0,0,0,0,0,0,0,0,0,0,0,0,0,0,0,0,0,0,0,0,0,0,0,0,0,0,0,0,0,0,0,0,0,0,0,0,0,0,0,0,0,0,0,0,0,0,0,0,0,0,0,0,0,0,0,0,0,0,0,0,0,0,0,0,0,0,0,0,0,0,0,0,0,0,0,0,0,0,0,0,0,0,0,0,0,0,0,0,0,0,0,0,0,0,0,0,0,0,0,0,0,0,0],"id":10,"left_children":[1,3,5,7,9,11,13,15,17,19,21,23,-1,25,27,29,31,33,35,37,-1,-1,39,41,-1,43,45,47,49,51,53,55,57,59,61,63,65,-1,-1,67,69,71,73,75,77,79,81,83,85,87,89,91,93,-1,95,97,-1,99,101,103,105,107,-1,109,111,-1,-1,113,-1,-1,-1,-1,115,117,119,-1,121,123,125,-1,127,129,131,133,135,137,-1,-1,-1,139,-1,-1,-1,-1,-1,-1,-1,-1,-1,-1,-1,-1,-1,-1,-1,-1,-1,-1,-1,-1,-1,-1,-1,-1,-1,-1,-1,-1,-1,-1,-1,-1,-1,-1,-1,-1,-1,-1,-1,-1,-1,-1,-1,-1,-1,-1,-1,-1,-1,-1,-1],"loss_changes":[3.1037E4,1.2103457E4,1.4387644E4,5.539635E3,2.328916E3,2.895668E3,7.767376E3,2.5913857E3,6.1620905E2,8.007461E2,1.9844788E2,1.4465481E3,0E0,6.277119E2,8.966998E2,2.0723867E3,1.0591702E3,2.8699902E2,5.6352045E2,3.2648828E2,0E0,0E0,2.0823325E2,8.7236957E2,0E0,5.694404E2,5.129613E2,1.0181547E3,6.2945435E1,4.5741113E2,5.251542E2,4.3033008E2,5.042975E2,7.269438E1,3.8743286E1,4.341433E2,7.3641754E1,0E0,0E0,3.6630414E2,2.2007455E2,7.382212E2,9.7152466E1,5.1197266E1,3.796958E2,1.6041711E2,2.916858E2,5.4524475E2,5.541977E1,9.80481E0,2.9571054E2,1.000791E2,1.0705063E1,0E0,5.276045E2,2.3253114E2,0E0,7.022885E1,7.796661E1,2.1218193E1,1.0450004E2,2.3816986E1,0E0,6.5459595E0,2.3583023E2,0E0,0E0,2.2205914E1,0E0,0E0,0E0,0E0,3.3949954E2,3.7481018E2,5.3102783E1,0E0,6.650952E1,1.9501831E2,4.169933E2,0E0,1.8506128E2,4.427752E1,1.7793134E2,8.094541E2,2.8183728E2,1.5685643E2,0E0,0E0,0E0,7.7512886E1,0E0,0E0,0E0,0E0,0E0,0E0,0E0,0E0,0E0,0E0,0E0,0E0,0E0,0E0,0E0,0E0,0E0,0E0,0E0,0E0,0E0,0E0,0E0,0E0,0E0,0E0,0E0,0E0,0E0,0E0,0E0,0E0,0E0,0E0,0E0,0E0,0E0,0E0,0E0,0E0,0E0,0E0,0E0,0E0,0E0,0E0,0E0,0E0,0E0,0E0,0E0],"parents":[2147483647,0,0,1,1,2,2,3,3,4,4,5,5,6,6,7,7,8,8,9,9,10,10,11,11,13,13,14,14,15,15,16,16,17,17,18,18,19,19,22,22,23,23,25,25,26,26,27,27,28,28,29,29,30,30,31,31,32,32,33,33,34,34,35,35,36,36,39,39,40,40,41,41,42,42,43,43,44,44,45,45,46,46,47,47,48,48,49,49,50,50,51,51,52,52,54,54,55,55,57,57,58,58,59,59,60,60,61,61,63,63,64,64,67,67,72,72,73,73,74,74,76,76,77,77,78,78,80,80,81,81,82,82,83,83,84,84,85,85,89,89],"right_children":[2,4,6,8,10,12,14,16,18,20,22,24,-1,26,28,30,32,34,36,38,-1,-1,40,42,-1,44,46,48,50,52,54,56,58,60,62,64,66,-1,-1,68,70,72,74,76,78,80,82,84,86,88,90,92,94,-1,96,98,-1,100,102,104,106,108,-1,110,112,-1,-1,114,-1,-1,-1,-1,116,118,120,-1,122,124,126,-1,128,130,132,134,136,138,-1,-1,-1,140,-1,-1,-1,-1,-1,-1,-1,-1,-1,-1,-1,-1,-1,-1,-1,-1,-1,-1,-1,-1,-1,-1,-1,-1,-1,-1,-1,-1,-1,-1,-1,-1,-1,-1,-1,-1,-1,-1,-1,-1,-1,-1,-1,-1,-1,-1,-1,-1,-1,-1,-1],"split_conditions":[5.6E1,1E0,1E0,1E0,1E0,7.2E1,8.9E1,1E0,1E0,5.5E1,1E0,1E0,4.1123366E-1,1E0,1E0,1E0,1E0,3.3E1,1E0,4.5E1,2.0704461E-2,-6.9141227E-1,4E1,1E0,3.209276E-1,1E0,6.3E1,1E0,1E0,5.3E1,4E1,1E0,4.1E1,1E0,1E0,1E0,3.4E1,-1.5536432E0,-1.004639E0,3.7E1,5E1,6.3E1,1E0,1E0,1E0,5.7E1,7.1E1,1.07E2,1.1E2,1.17E2,9.4E1,1E0,1E0,-5.8322334E-1,4.7E1,4.1E1,-5.507199E-1,1E0,5.2E1,1E0,1E0,1E0,3.3600852E-1,5E1,3.5E1,-8.385887E-2,3.1311196E-1,3.6E1,-9.512801E-1,3.2008478E-1,-3.5884115E-1,-4.78825E-1,1E0,1E0,1E0,-1.0269119E0,8.2E1,7.7E1,6.4E1,-4.7039796E-2,1E0,1E0,7.6E1,1E0,1E0,1.05E2,4.1786715E-1,4.09398E-1,9.770985E-2,9.3E1,3.532897E-1,-1.0504117E0,-6.894686E-1,-6.411705E-2,-3.3735323E-1,1.2178315E-1,-3.82328E-1,1.8312512E-1,-2.6656833E-1,-5.6755956E-2,-4.5296955E-1,2.3274557E-1,-1.3015023E-1,-2.7178153E-1,-5.7126332E-2,2.2143984E-1,-2.2646752E-1,1.1801734E-1,2.4152055E-1,-5.1209414E-1,-1.9832522E-1,-2.717827E-1,3.170885E-1,1.20661736E-1,-1.1497688E-1,1.4781816E-1,-2.005391E-1,-2.3551166E-1,2.660893E-1,3.522212E-1,9.875031E-2,-7.037135E-1,-1.215601E-1,-7.9321414E-1,-2.7374864E-1,3.1858343E-1,-3.862452E-1,-8.808476E-1,-6.928883E-2,1.70318E-1,-7.988777E-2,-6.7579365E-1,-1.614302E-1,-7.1798176E-1,6.369152E-2,3.358459E-1,-2.3041716E-1,2.5431007E-1,-2.5293905E-1,5.6113053E-2,-4.3560544E-1],"split_indices":[0,5,5,8,11,0,0,4,9,0,3,8,0,4,4,3,11,0,3,0,0,0,0,11,0,3,0,3,9,0,0,7,0,4,4,4,0,0,0,0,0,0,4,11,11,0,0,0,0,0,0,10,10,0,0,0,0,7,0,10,10,10,0,0,0,0,0,0,0,0,0,0,7,3,7,0,0,0,0,0,11,9,0,10,10,0,0,0,0,0,0,0,0,0,0,0,0,0,0,0,0,0,0,0,0,0,0,0,0,0,0,0,0,0,0,0,0,0,0,0,0,0,0,0,0,0,0,0,0,0,0,0,0,0,0,0,0,0,0,0,0],"split_type":[0,0,0,0,0,0,0,0,0,0,0,0,0,0,0,0,0,0,0,0,0,0,0,0,0,0,0,0,0,0,0,0,0,0,0,0,0,0,0,0,0,0,0,0,0,0,0,0,0,0,0,0,0,0,0,0,0,0,0,0,0,0,0,0,0,0,0,0,0,0,0,0,0,0,0,0,0,0,0,0,0,0,0,0,0,0,0,0,0,0,0,0,0,0,0,0,0,0,0,0,0,0,0,0,0,0,0,0,0,0,0,0,0,0,0,0,0,0,0,0,0,0,0,0,0,0,0,0,0,0,0,0,0,0,0,0,0,0,0,0,0],"sum_hessian":[8.09E2,2.44E2,5.65E2,1.94E2,5E1,4.34E2,1.31E2,1.29E2,6.5E1,3.8E1,1.2E1,1.13E2,3.21E2,6.9E1,6.2E1,7.7E1,5.2E1,4.4E1,2.1E1,3.7E1,1E0,6E0,6E0,6.5E1,4.8E1,4.8E1,2.1E1,3.4E1,2.8E1,4.2E1,3.5E1,3.1E1,2.1E1,9E0,3.5E1,1.5E1,6E0,2.4E1,1.3E1,3E0,3E0,3.9E1,2.6E1,2.6E1,2.2E1,7E0,1.4E1,2E1,1.4E1,2E1,8E0,3.8E1,4E0,1.5E1,2E1,1.4E1,1.7E1,5E0,1.6E1,5E0,4E0,2.4E1,1.1E1,1E1,5E0,1E0,5E0,2E0,1E0,2E0,1E0,1.3E1,2.6E1,1.4E1,1.2E1,1.4E1,1.2E1,1.3E1,9E0,1E0,6E0,6E0,8E0,1.3E1,7E0,9E0,5E0,1.9E1,1E0,2E0,6E0,2.6E1,1.2E1,1E0,3E0,8E0,1.2E1,3E0,1.1E1,2E0,3E0,1.5E1,1E0,2E0,3E0,3E0,1E0,1E1,1.4E1,8E0,2E0,2E0,3E0,1E0,1E0,1.3E1,1.3E1,5E0,9E0,8E0,4E0,1.1E1,1E0,9E0,4E0,2E0,7E0,5E0,1E0,4E0,2E0,2E0,6E0,8E0,5E0,4E0,3E0,8E0,1E0,1E0,1E0],"tree_param":{"num_deleted":"0","num_feature":"12","num_nodes":"141","size_leaf_vector":"1"}},{"base_weights":[-5.9664596E-2,-7.297642E0,5.2575326E0,-3.8031898E0,-1.9873554E1,7.4820538E0,-2.1989696E0,-7.214773E0,2.6290734E0,-2.318801E1,-1.1371828E1,3.8516736E0,3.9227614E-1,-9.000185E0,2.0341184E0,-3.1061342E0,-1.611027E1,-2.1013434E0,4.637327E0,-1.3598847E0,-1.4581323E1,-1.4056118E1,-7.739886E0,6.1681643E0,-2.556369E0,-5.5708E0,-1.480169E1,4.8120875E0,-4.4123883E0,-9.253953E0,-7.491125E-1,-1.8258667E1,-8.360887E0,2.1600541E-1,-7.2750077E0,3.537477E-1,9.8938423E-1,-1.0657562E0,-1.0653885E1,-7.997605E-1,-3.0895662E-1,-8.518662E-1,-5.345817E0,3.1250339E0,3.673527E-1,1.0558434E0,-3.1898752E-1,2.5828996E0,-7.0373707E0,-1.55338125E1,-1.13799475E-1,3.1076818E0,3.7400576E-1,-8.087028E0,4.0921807E0,-5.924102E0,-5.785494E-1,-3.6030638E0,3.6318996E0,-1.3867126E1,-1.073724E0,-5.169231E-1,-2.73356E0,-1.5210721E0,2.7011168E0,-4.956586E-1,-1.4990101E0,-1.5408955E0,4.027468E0,-5.3174343E0,-8.441457E-1,-1.8709466E0,-6.9942445E-1,3.3491442E-1,2.2202556E-1,-7.364334E-1,2.5043067E-1,7.391777E-1,2.4894467E-1,-8.038564E0,2.6505024E0,-8.034799E0,-8.4242815E-1,4.5372834E0,-3.6052055E0,-5.2099687E-1,-4.7432404E0,6.3189697E0,-9.83195E-1,-8.630284E-2,-4.1351613E-1,-2.8168696E-1,2.0715009E-1,4.392166E-2,3.024647E-1,-7.7094084E-1,-3.7090495E-1,1.4656925E-1,-2.4413215E-1,-1.2404721E-1,1.2527415E-1,-1.2571707E-1,2.8639516E-1,-2.627233E-1,2.4418393E-1,7.163307E-2,-2.7843532E-1,3.2433197E-1,1.3205265E-1,-4.8539147E-1,-7.5213246E-2,-3.0679682E-1,2.497137E-1,-6.7639925E-2,2.0240365E-1,-2.270237E-1,1.6565424E-1,1.8975507E-1,-7.722486E-2,-2.6164356E-1,-5.7549006E-1,3.3119908E-1,-1.3241139E-1,-6.4428824E-1,1.6295242E-1,4.039363E-1,9.094808E-2,-1.5104771E-2,-3.4038088E-1,-1.8018438E-2,-3.6504447E-1,3.9093325E-1,1.3564758E-1,-3.7681922E-1,3.030796E-1],"categories":[],"categories_nodes":[],"categories_segments":[],"categories_sizes":[],"default_left":[0,0,0,0,0,0,0,0,0,0,0,0,0,0,0,0,0,0,0,0,0,0,0,0,0,0,0,0,0,0,0,0,0,0,0,0,0,0,0,0,0,0,0,0,0,0,0,0,0,0,0,0,0,0,0,0,0,0,0,0,0,0,0,0,0,0,0,0,0,0,0,0,0,0,0,0,0,0,0,0,0,0,0,0,0,0,0,0,0,0,0,0,0,0,0,0,0,0,0,0,0,0,0,0,0,0,0,0,0,0,0,0,0,0,0,0,0,0,0,0,0,0,0,0,0,0,0,0,0,0,0,0,0,0,0],"id":11,"left_children":[1,3,5,7,9,11,13,15,17,19,21,23,-1,25,27,29,31,33,35,-1,37,39,41,43,45,47,49,51,53,55,57,59,61,63,65,-1,67,-1,69,-1,-1,-1,71,73,-1,75,-1,77,79,81,-1,83,-1,85,87,89,-1,91,93,95,-1,-1,97,99,101,-1,103,105,107,109,-1,111,-1,-1,113,115,-1,117,-1,119,121,123,-1,125,127,-1,129,131,133,-1,-1,-1,-1,-1,-1,-1,-1,-1,-1,-1,-1,-1,-1,-1,-1,-1,-1,-1,-1,-1,-1,-1,-1,-1,-1,-1,-1,-1,-1,-1,-1,-1,-1,-1,-1,-1,-1,-1,-1,-1,-1,-1,-1,-1,-1],"loss_changes":[3.1442742E4,1.5129707E4,7.829E3,5.987791E3,1.8497031E3,4.4876953E2,3.1564329E3,6.4555713E3,9.12233E2,1.4324551E3,1.1543848E2,5.353141E2,0E0,7.5315796E2,1.2389902E3,1.7754043E3,7.7967285E2,3.492578E2,5.887859E2,0E0,2.7539624E2,8.44541E1,1.7602606E2,7.031561E1,1.4484467E2,3.5300012E2,1.0220044E2,1.9502954E2,6.893692E2,1.9377539E2,1.1383735E3,3.0947168E2,1.2753766E2,9.476204E1,1.2228229E2,0E0,2.2144756E2,0E0,3.7559888E2,0E0,0E0,0E0,3.0418207E2,9.187149E1,0E0,4.619526E1,0E0,1.8407444E1,2.5409253E2,2.6555176E0,0E0,3.138572E2,0E0,6.7587036E1,8.532531E1,1.4331769E2,0E0,8.8847644E2,2.3430978E2,9.576636E1,0E0,0E0,7.518508E1,5.646068E1,1.5647656E2,0E0,1.2154074E2,1.9960884E2,2.719107E1,1.3606874E2,0E0,2.941654E2,0E0,0E0,4.1628334E1,9.206564E1,0E0,3.3776466E1,0E0,1.5403369E2,8.0704994E1,2.6113956E2,0E0,2.3560138E2,6.1410973E1,0E0,8.704779E1,5.8279877E0,1.8417996E2,0E0,0E0,0E0,0E0,0E0,0E0,0E0,0E0,0E0,0E0,0E0,0E0,0E0,0E0,0E0,0E0,0E0,0E0,0E0,0E0,0E0,0E0,0E0,0E0,0E0,0E0,0E0,0E0,0E0,0E0,0E0,0E0,0E0,0E0,0E0,0E0,0E0,0E0,0E0,0E0,0E0,0E0,0E0,0E0,0E0,0E0],"parents":[2147483647,0,0,1,1,2,2,3,3,4,4,5,5,6,6,7,7,8,8,9,9,10,10,11,11,13,13,14,14,15,15,16,16,17,17,18,18,20,20,21,21,22,22,23,23,24,24,25,25,26,26,27,27,28,28,29,29,30,30,31,31,32,32,33,33,34,34,36,36,38,38,42,42,43,43,45,45,47,47,48,48,49,49,51,51,53,53,54,54,55,55,57,57,58,58,59,59,62,62,63,63,64,64,66,66,67,67,68,68,69,69,71,71,74,74,75,75,77,77,79,79,80,80,81,81,83,83,84,84,86,86,87,87,88,88],"right_children":[2,4,6,8,10,12,14,16,18,20,22,24,-1,26,28,30,32,34,36,-1,38,40,42,44,46,48,50,52,54,56,58,60,62,64,66,-1,68,-1,70,-1,-1,-1,72,74,-1,76,-1,78,80,82,-1,84,-1,86,88,90,-1,92,94,96,-1,-1,98,100,102,-1,104,106,108,110,-1,112,-1,-1,114,116,-1,118,-1,120,122,124,-1,126,128,-1,130,132,134,-1,-1,-1,-1,-1,-1,-1,-1,-1,-1,-1,-1,-1,-1,-1,-1,-1,-1,-1,-1,-1,-1,-1,-1,-1,-1,-1,-1,-1,-1,-1,-1,-1,-1,-1,-1,-1,-1,-1,-1,-1,-1,-1,-1,-1,-1],"split_conditions":[6.8E1,1E0,1E0,1E0,1E0,7.2E1,8.9E1,1E0,4.2E1,1E0,1E0,1E0,3.9227614E-1,1E0,1E0,4E1,5.3E1,1E0,1E0,-1.3598847E0,4.2E1,6.4E1,3.4E1,6.9E1,1E0,7.3E1,1E0,1.1E2,1.07E2,1E0,1E0,1E0,1E0,1E0,1E0,3.537477E-1,5.6E1,-1.0657562E0,5.7E1,-7.997605E-1,-3.0895662E-1,-8.518662E-1,6.4E1,1E0,3.673527E-1,7.1E1,-3.1898752E-1,7.1E1,8.7E1,7.3E1,-1.13799475E-1,1E0,3.7400576E-1,1.02E2,1.17E2,1E0,-5.785494E-1,6.3E1,5E1,4.5E1,-1.073724E0,-5.169231E-1,1E0,3.8E1,1E0,-4.956586E-1,3.5E1,1E0,5.9E1,5.1E1,-8.441457E-1,5.6E1,-6.9942445E-1,3.3491442E-1,1E0,1E0,2.5043067E-1,7E1,2.4894467E-1,1E0,8.8E1,6.9E1,-8.4242815E-1,9.5E1,9.3E1,-5.2099687E-1,1.04E2,1.13E2,1.19E2,-8.630284E-2,-4.1351613E-1,-2.8168696E-1,2.0715009E-1,4.392166E-2,3.024647E-1,-7.7094084E-1,-3.7090495E-1,1.4656925E-1,-2.4413215E-1,-1.2404721E-1,1.2527415E-1,-1.2571707E-1,2.8639516E-1,-2.627233E-1,2.4418393E-1,7.163307E-2,-2.7843532E-1,3.2433197E-1,1.3205265E-1,-4.8539147E-1,-7.5213246E-2,-3.0679682E-1,2.497137E-1,-6.7639925E-2,2.0240365E-1,-2.270237E-1,1.6565424E-1,1.8975507E-1,-7.722486E-2,-2.6164356E-1,-5.7549006E-1,3.3119908E-1,-1.3241139E-1,-6.4428824E-1,1.6295242E-1,4.039363E-1,9.094808E-2,-1.5104771E-2,-3.4038088E-1,-1.8018438E-2,-3.6504447E-1,3.9093325E-1,1.3564758E-1,-3.7681922E-1,3.030796E-1],"split_indices":[0,5,5,8,11,0,0,2,0,4,3,9,0,2,2,0,0,9,2,0,0,0,0,0,7,0,9,0,0,7,11,7,11,4,4,0,0,0,0,0,0,0,0,3,0,0,0,0,0,0,0,9,0,0,0,3,0,0,0,0,0,0,7,0,11,0,0,9,0,0,0,0,0,0,8,8,0,0,0,9,0,0,0,0,0,0,0,0,0,0,0,0,0,0,0,0,0,0,0,0,0,0,0,0,0,0,0,0,0,0,0,0,0,0,0,0,0,0,0,0,0,0,0,0,0,0,0,0,0,0,0,0,0,0,0],"split_type":[0,0,0,0,0,0,0,0,0,0,0,0,0,0,0,0,0,0,0,0,0,0,0,0,0,0,0,0,0,0,0,0,0,0,0,0,0,0,0,0,0,0,0,0,0,0,0,0,0,0,0,0,0,0,0,0,0,0,0,0,0,0,0,0,0,0,0,0,0,0,0,0,0,0,0,0,0,0,0,0,0,0,0,0,0,0,0,0,0,0,0,0,0,0,0,0,0,0,0,0,0,0,0,0,0,0,0,0,0,0,0,0,0,0,0,0,0,0,0,0,0,0,0,0,0,0,0,0,0,0,0,0,0,0,0],"sum_hessian":[8.15E2,3.45E2,4.7E2,2.71E2,7.4E1,3.62E2,1.08E2,1.77E2,9.4E1,5.2E1,2.2E1,3.4E1,3.28E2,4.1E1,6.7E1,1.22E2,5.5E1,2.8E1,6.6E1,3.4E1,1.8E1,1.1E1,1.1E1,2.5E1,9E0,2.7E1,1.4E1,4.7E1,2E1,3.3E1,8.9E1,4.2E1,1.3E1,2E1,8E0,3.9E1,2.7E1,5E0,1.3E1,8E0,3E0,1E0,1E1,8E0,1.7E1,5E0,4E0,4E0,2.3E1,1.3E1,1E0,3E1,1.7E1,1.4E1,6E0,1.5E1,1.8E1,5.4E1,3.5E1,2E1,2.2E1,9E0,4E0,1.2E1,8E0,5E0,3E0,1.5E1,1.2E1,8E0,5E0,8E0,2E0,3E0,5E0,4E0,1E0,3E0,1E0,2.1E1,2E0,3E0,1E1,2.5E1,5E0,7E0,7E0,4E0,2E0,6E0,9E0,4.3E1,1.1E1,1.7E1,1.8E1,1.5E1,5E0,1E0,3E0,1E1,2E0,3E0,5E0,2E0,1E0,9E0,6E0,3E0,9E0,3E0,5E0,5E0,3E0,4E0,1E0,2E0,2E0,1E0,2E0,1.3E1,8E0,1E0,1E0,2E0,1E0,1E1,1.5E1,3E0,2E0,3E0,4E0,2E0,2E0,1E0,1E0],"tree_param":{"num_deleted":"0","num_feature":"12","num_nodes":"135","size_leaf_vector":"1"}},{"base_weights":[4.3906923E-2,-8.897741E0,3.5506587E0,-5.24923E0,-2.105219E1,6.009719E0,-4.3788257E0,-2.4260092E0,-1.15702E1,-2.3873232E1,-6.157001E-1,1.9137149E0,7.4100976E0,-9.764275E0,2.1689622E0,-5.220578E0,2.3228629E0,-1.5921003E1,-3.7678998E0,-1.2682849E0,-8.651331E0,-8.5715437E-1,5.5884056E0,6.390956E0,3.802401E-1,-5.8478928E0,-8.0224556E-1,5.0239105E0,-2.798614E0,-8.370011E0,1.521343E0,-6.243447E-1,4.0137587E0,-1.7114622E1,-5.336371E0,-5.162477E0,1.7272431E0,-1.1325245E0,-9.6816397E-1,1.2266214E0,-5.4800262E0,4.912772E0,3.4186825E-1,3.6161602E-1,5.0947576E0,-1.0871146E1,-4.281132E0,3.3602877E0,3.481484E-1,-6.298907E0,2.7316864E0,-6.3734406E-1,-3.8505287E0,-2.246286E0,3.0520505E-1,-3.9716556E0,5.2030945E0,4.963866E0,1.9214034E0,-1.018165E0,-6.3981396E-1,-3.053178E-1,-5.641079E-2,-6.2635374E0,2.063652E0,2.497083E-1,-1.05771385E-1,-9.0213016E-2,2.206707E-2,-2.6083903E0,3.290124E0,-8.872303E0,-1.5895649E0,4.182685E0,3.3191457E-1,3.5635052E0,3.8806584E-1,-6.607203E-1,-2.1765392E-1,2.996404E-1,-4.998448E0,4.325297E0,-2.5460815E0,-3.988406E0,-4.5499617E-1,4.519886E0,-1.473704E-1,-3.2784006E-1,2.6024875E-1,-3.1172967E-1,-1.1460564E-2,-4.6850935E-1,-9.774653E-2,3.450336E-1,3.197174E-2,6.848431E-2,2.5404724E-1,-1.2338898E-1,2.391024E-1,-1.1193224E-1,-4.0260598E-1,-8.201351E-2,2.3678742E-1,-3.563913E-1,3.4326065E-1,2.2415791E-1,9.457286E-2,-6.5972966E-1,-1.5356484E-1,-1.3346641E-1,2.3020172E-1,3.3586344E-1,1.5930523E-1,6.876784E-2,3.2001448E-1,3.1238556E-2,-4.75626E-2,-1.2253139E-1,-3.775834E-1,6.532612E-2,4.5337448E-1,2.8395978E-1,-3.590453E-1,-2.7561978E-1,-1.0268402E-1,1.4509436E-1,3.9614698E-1],"categories":[],"categories_nodes":[],"categories_segments":[],"categories_sizes":[],"default_left":[0,0,0,0,0,0,0,0,0,0,0,0,0,0,0,0,0,0,0,0,0,0,0,0,0,0,0,0,0,0,0,0,0,0,0,0,0,0,0,0,0,0,0,0,0,0,0,0,0,0,0,0,0,0,0,0,0,0,0,0,0,0,0,0,0,0,0,0,0,0,0,0,0,0,0,0,0,0,0,0,0,0,0,0,0,0,0,0,0,0,0,0,0,0,0,0,0,0,0,0,0,0,0,0,0,0,0,0,0,0,0,0,0,0,0,0,0,0,0,0,0,0,0,0,0,0,0],"id":12,"left_children":[1,3,5,7,9,11,13,15,17,19,-1,21,23,25,27,29,31,33,35,-1,37,39,41,43,-1,45,-1,47,49,51,53,55,57,59,61,63,65,67,-1,69,71,73,-1,-1,75,77,79,81,-1,83,85,-1,87,89,-1,91,93,95,97,-1,-1,-1,-1,99,101,-1,-1,-1,-1,103,105,107,109,111,-1,113,-1,-1,115,-1,117,119,121,123,-1,125,-1,-1,-1,-1,-1,-1,-1,-1,-1,-1,-1,-1,-1,-1,-1,-1,-1,-1,-1,-1,-1,-1,-1,-1,-1,-1,-1,-1,-1,-1,-1,-1,-1,-1,-1,-1,-1,-1,-1,-1,-1],"loss_changes":[2.5712271E4,1.0133338E4,1.1511275E4,3.166274E3,1.0125176E3,2.567E3,4.957968E3,1.671008E3,1.8070566E3,6.665625E2,0E0,1.1859122E3,1.7873047E1,1.8001685E3,9.21719E2,1.6901587E3,2.3672675E2,3.5086035E2,1.6984827E2,0E0,3.8077594E2,6.5213477E2,8.60144E0,2.8587646E1,0E0,3.391006E2,0E0,1.0886267E2,4.817907E2,1.0191018E3,4.626309E2,3.7177744E2,5.0101257E1,1.7432129E2,9.311798E0,1.4818472E2,7.333334E1,5.0251822E0,0E0,3.805191E2,2.6304492E2,1.7586182E1,0E0,0E0,8.258826E1,2.7172668E2,3.1737152E2,1.4780533E2,0E0,6.0782104E1,1.1487549E2,0E0,7.2031445E2,1.1924165E2,0E0,1.1233017E2,4.981761E1,1.4567261E0,1.4991586E2,0E0,0E0,0E0,0E0,8.995691E1,3.7459618E1,0E0,0E0,0E0,0E0,7.7679486E2,4.3248688E1,2.3528534E2,8.5853516E1,4.932376E1,0E0,1.0913614E2,0E0,0E0,2.448319E0,0E0,2.2218408E2,2.8878094E2,1.932726E2,1.8164322E1,0E0,2.1057632E1,0E0,0E0,0E0,0E0,0E0,0E0,0E0,0E0,0E0,0E0,0E0,0E0,0E0,0E0,0E0,0E0,0E0,0E0,0E0,0E0,0E0,0E0,0E0,0E0,0E0,0E0,0E0,0E0,0E0,0E0,0E0,0E0,0E0,0E0,0E0,0E0,0E0,0E0,0E0,0E0,0E0],"parents":[2147483647,0,0,1,1,2,2,3,3,4,4,5,5,6,6,7,7,8,8,9,9,11,11,12,12,13,13,14,14,15,15,16,16,17,17,18,18,20,20,21,21,22,22,23,23,25,25,27,27,28,28,29,29,30,30,31,31,32,32,33,33,34,34,35,35,36,36,37,37,39,39,40,40,41,41,44,44,45,45,46,46,47,47,49,49,50,50,52,52,53,53,55,55,56,56,57,57,58,58,63,63,64,64,69,69,70,70,71,71,72,72,73,73,75,75,78,78,80,80,81,81,82,82,83,83,85,85],"right_children":[2,4,6,8,10,12,14,16,18,20,-1,22,24,26,28,30,32,34,36,-1,38,40,42,44,-1,46,-1,48,50,52,54,56,58,60,62,64,66,68,-1,70,72,74,-1,-1,76,78,80,82,-1,84,86,-1,88,90,-1,92,94,96,98,-1,-1,-1,-1,100,102,-1,-1,-1,-1,104,106,108,110,112,-1,114,-1,-1,116,-1,118,120,122,124,-1,126,-1,-1,-1,-1,-1,-1,-1,-1,-1,-1,-1,-1,-1,-1,-1,-1,-1,-1,-1,-1,-1,-1,-1,-1,-1,-1,-1,-1,-1,-1,-1,-1,-1,-1,-1,-1,-1,-1,-1,-1,-1],"split_conditions":[5.6E1,1E0,1E0,1E0,1E0,7.2E1,8.9E1,1E0,1E0,5.4E1,-6.157001E-1,1E0,8.2E1,1E0,1E0,1E0,4.1E1,5.3E1,5E1,-1.2682849E0,1E0,1E0,1E0,1E0,3.802401E-1,6.3E1,-8.0224556E-1,1.1E2,1.05E2,1E0,4.2E1,1E0,4.7E1,1E0,1E0,1E0,5.4E1,5.5E1,-9.6816397E-1,6.3E1,1E0,6.8E1,3.4186825E-1,3.6161602E-1,1E0,1E0,6.4E1,1.05E2,3.481484E-1,1E0,1.18E2,-6.3734406E-1,5.2E1,3.3E1,3.0520505E-1,3.6E1,1E0,4.2E1,5E1,-1.018165E0,-6.3981396E-1,-3.053178E-1,-5.641079E-2,3.6E1,3.8E1,2.497083E-1,-1.05771385E-1,-9.0213016E-2,2.206707E-2,1E0,6.7E1,1E0,6.8E1,5.8E1,3.3191457E-1,1E0,3.8806584E-1,-6.607203E-1,5.9E1,2.996404E-1,1E0,1E0,1E0,1.01E2,-4.5499617E-1,1.17E2,-1.473704E-1,-3.2784006E-1,2.6024875E-1,-3.1172967E-1,-1.1460564E-2,-4.6850935E-1,-9.774653E-2,3.450336E-1,3.197174E-2,6.848431E-2,2.5404724E-1,-1.2338898E-1,2.391024E-1,-1.1193224E-1,-4.0260598E-1,-8.201351E-2,2.3678742E-1,-3.563913E-1,3.4326065E-1,2.2415791E-1,9.457286E-2,-6.5972966E-1,-1.5356484E-1,-1.3346641E-1,2.3020172E-1,3.3586344E-1,1.5930523E-1,6.876784E-2,3.2001448E-1,3.1238556E-2,-4.75626E-2,-1.2253139E-1,-3.775834E-1,6.532612E-2,4.5337448E-1,2.8395978E-1,-3.590453E-1,-2.7561978E-1,-1.0268402E-1,1.4509436E-1,3.9614698E-1],"split_indices":[0,5,5,2,11,0,0,11,8,0,0,8,0,2,2,8,0,0,0,0,2,2,4,2,0,0,0,0,0,6,0,8,0,6,11,11,0,0,0,0,6,0,0,0,6,11,0,0,0,11,0,0,0,0,0,0,3,0,0,0,0,0,0,0,0,0,0,0,0,11,0,11,0,0,0,8,0,0,0,0,3,11,3,0,0,0,0,0,0,0,0,0,0,0,0,0,0,0,0,0,0,0,0,0,0,0,0,0,0,0,0,0,0,0,0,0,0,0,0,0,0,0,0,0,0,0,0],"split_type":[0,0,0,0,0,0,0,0,0,0,0,0,0,0,0,0,0,0,0,0,0,0,0,0,0,0,0,0,0,0,0,0,0,0,0,0,0,0,0,0,0,0,0,0,0,0,0,0,0,0,0,0,0,0,0,0,0,0,0,0,0,0,0,0,0,0,0,0,0,0,0,0,0,0,0,0,0,0,0,0,0,0,0,0,0,0,0,0,0,0,0,0,0,0,0,0,0,0,0,0,0,0,0,0,0,0,0,0,0,0,0,0,0,0,0,0,0,0,0,0,0,0,0,0,0,0,0],"sum_hessian":[8.18E2,2.3E2,5.88E2,1.78E2,5.2E1,4.49E2,1.39E2,1.24E2,5.4E1,3.8E1,1.4E1,1.15E2,3.34E2,7.6E1,6.3E1,7.8E1,4.6E1,3.4E1,2E1,3.4E1,4E0,6.6E1,4.9E1,5.9E1,2.75E2,4.8E1,2.8E1,4E1,2.3E1,5.3E1,2.5E1,1.7E1,2.9E1,3E1,4E0,1.6E1,4E0,3E0,1E0,4.6E1,2E1,3.5E1,1.4E1,3.3E1,2.6E1,1E1,3.8E1,2.3E1,1.7E1,1.4E1,9E0,2.6E1,2.7E1,1.4E1,1.1E1,1.1E1,6E0,1.9E1,1E1,1.5E1,1.5E1,3E0,1E0,1.4E1,2E0,2E0,2E0,2E0,1E0,1.6E1,3E1,1E1,1E1,2.7E1,8E0,1.8E1,8E0,8E0,2E0,2E0,3.6E1,2E1,3E0,9E0,5E0,7E0,2E0,2.1E1,6E0,4E0,1E1,2E0,9E0,4E0,2E0,1E0,1.8E1,4E0,6E0,5E0,9E0,1E0,1E0,1.1E1,5E0,1.5E1,1.5E1,5E0,5E0,9E0,1E0,6E0,2.1E1,1.1E1,7E0,1E0,1E0,1.9E1,1.7E1,1.3E1,7E0,1E0,2E0,4E0,5E0,6E0,1E0],"tree_param":{"num_deleted":"0","num_feature":"12","num_nodes":"127","size_leaf_vector":"1"}},{"base_weights":[2.1531244E-1,-5.6125255E0,4.50113E0,-8.655806E0,1.4351331E0,1.7688649E0,5.6726637E0,-1.190988E1,-2.1613188E0,-2.6545925E0,3.2082303E0,-5.9616677E-2,3.3632907E-1,5.0474415E0,3.7778333E-1,-1.6051996E1,-4.9921827E0,-1.08538065E1,-3.3990484E-1,3.405968E-1,-8.403645E0,1.9649521E0,2.6900598E-1,-2.5699513E0,7.1946692E0,3.650243E0,3.6222675E-1,-2.0208515E1,-9.679154E0,-6.0872283E0,3.0233974E0,-7.247762E0,-1.8056976E1,-2.9818332E0,3.1059325E0,-2.1577547E0,1.9223516E0,-1.1375308E1,-2.562587E0,-9.734101E-1,3.3300686E0,-9.5012E0,3.5973375E0,3.4192383E0,3.8513017E-1,5.720049E-1,3.3405378E-1,-2.2621714E1,-7.7238894E-1,-1.0533591E1,8.577843E-1,-7.597979E0,-2.0243208E0,2.0892158E-1,8.2375526E-1,-1.0872744E1,1.8141403E0,-2.4902649E-1,-1.0377808E0,-9.377869E0,2.0817749E-1,-3.7262554E0,4.0030737E0,-3.1260643E0,-1.658516E-1,5.172017E0,1.0528374E-1,-7.185258E-1,-5.536272E0,-5.586891E0,2.3836575E-1,2.4545705E0,-7.095806E0,2.532158E-1,2.3558605E0,-1.2083303E1,-3.8047528E0,-2.2308571E0,3.1434512E-1,1.4929142E0,2.7811337E-1,-2.3070734E0,5.41693E0,-1.2784559E0,-8.2971257E-1,-2.0115567E-2,-5.695246E-1,-4.880117E-2,1.5898018E-1,-5.5224425E-1,-1.6941741E-1,-1.8799987E-2,-4.5208564E-1,-1.09123364E-1,2.4606057E-1,-7.2696537E-1,-2.8824717E-1,2.3273869E-1,-3.4216437E-2,-6.7150074E-1,-2.5832626E-1,7.299409E-2,-3.6770463E-1,8.0571175E-2,-3.0213115E-1,2.4616165E-1,-1.259325E-1,-2.5775325E-1,-4.113989E-2,-1.7179528E-1,2.4110775E-1,3.3220044E-1,-1.7898751E-2,1.4282271E-1,-1.6085888E-1,-6.908436E-2,-3.2302856E-1,-3.3782044E-1,-5.1958468E-2,-6.447474E-4,2.2564705E-1,2.8475571E-2,-5.5354214E-1,5.627792E-2,2.2609912E-1,-3.1284365E-1,-7.000767E-1,-2.7753255E-1,7.555895E-2,-1.6464849E-1,1.3806063E-1,2.1358375E-1,-4.286156E-2,-2.1579342E-1,1.0529039E-1,2.03866E-1,3.9704028E-1],"categories":[],"categories_nodes":[],"categories_segments":[],"categories_sizes":[],"default_left":[0,0,0,0,0,0,0,0,0,0,0,0,0,0,0,0,0,0,0,0,0,0,0,0,0,0,0,0,0,0,0,0,0,0,0,0,0,0,0,0,0,0,0,0,0,0,0,0,0,0,0,0,0,0,0,0,0,0,0,0,0,0,0,0,0,0,0,0,0,0,0,0,0,0,0,0,0,0,0,0,0,0,0,0,0,0,0,0,0,0,0,0,0,0,0,0,0,0,0,0,0,0,0,0,0,0,0,0,0,0,0,0,0,0,0,0,0,0,0,0,0,0,0,0,0,0,0,0,0,0,0,0,0,0,0,0,0],"id":13,"left_children":[1,3,5,7,9,11,13,15,17,19,21,23,-1,25,-1,27,29,31,33,35,37,39,-1,41,43,45,-1,47,49,51,53,55,57,59,61,63,65,67,69,71,73,75,77,79,-1,81,-1,83,-1,85,87,89,91,-1,93,95,97,-1,-1,99,101,103,105,107,109,111,113,-1,115,117,-1,119,121,-1,123,125,127,129,-1,131,-1,133,135,-1,-1,-1,-1,-1,-1,-1,-1,-1,-1,-1,-1,-1,-1,-1,-1,-1,-1,-1,-1,-1,-1,-1,-1,-1,-1,-1,-1,-1,-1,-1,-1,-1,-1,-1,-1,-1,-1,-1,-1,-1,-1,-1,-1,-1,-1,-1,-1,-1,-1,-1,-1,-1,-1],"loss_changes":[2.0156768E4,7.3476387E3,1.4784043E3,5.025174E3,7.626705E2,1.278579E3,3.444834E2,4.475836E3,1.2787529E3,5.5388617E2,1.8654755E2,1.9124011E3,0E0,7.3179004E2,0E0,2.426793E3,5.538269E2,2.3277649E2,6.2830994E2,9.1087105E1,1.6178406E2,1.9577942E2,0E0,3.3684456E3,2.5440063E1,1.4236108E3,0E0,3.2837305E2,3.781648E2,3.160735E2,1.68833E1,3.8106616E2,3.7780518E1,7.976858E2,1.9879968E2,1.6840546E1,8.2123535E1,4.286487E1,1.3747372E2,3.5321643E2,4.3823273E1,4.9825244E2,6.7238806E2,1.2336857E1,0E0,1.086564E3,0E0,2.3301758E2,0E0,3.2531445E2,2.0134445E1,5.284739E2,1.8167096E2,0E0,6.001184E1,6.600635E1,3.1574333E1,0E0,0E0,1.5245813E2,2.663107E2,5.9193336E1,1.7442752E2,2.37984E1,8.1812675E1,4.3078888E1,1.0059629E2,0E0,6.4338303E0,1.42535095E1,0E0,5.5926727E1,1.8912448E2,0E0,5.620488E1,1.9180518E2,1.2904196E2,8.332255E1,0E0,2.978378E1,0E0,4.4345242E2,6.567206E1,0E0,0E0,0E0,0E0,0E0,0E0,0E0,0E0,0E0,0E0,0E0,0E0,0E0,0E0,0E0,0E0,0E0,0E0,0E0,0E0,0E0,0E0,0E0,0E0,0E0,0E0,0E0,0E0,0E0,0E0,0E0,0E0,0E0,0E0,0E0,0E0,0E0,0E0,0E0,0E0,0E0,0E0,0E0,0E0,0E0,0E0,0E0,0E0,0E0,0E0,0E0,0E0,0E0,0E0],"parents":[2147483647,0,0,1,1,2,2,3,3,4,4,5,5,6,6,7,7,8,8,9,9,10,10,11,11,13,13,15,15,16,16,17,17,18,18,19,19,20,20,21,21,23,23,24,24,25,25,27,27,28,28,29,29,30,30,31,31,32,32,33,33,34,34,35,35,36,36,37,37,38,38,39,39,40,40,41,41,42,42,43,43,45,45,47,47,49,49,50,50,51,51,52,52,54,54,55,55,56,56,59,59,60,60,61,61,62,62,63,63,64,64,65,65,66,66,68,68,69,69,71,71,72,72,74,74,75,75,76,76,77,77,79,79,81,81,82,82],"right_children":[2,4,6,8,10,12,14,16,18,20,22,24,-1,26,-1,28,30,32,34,36,38,40,-1,42,44,46,-1,48,50,52,54,56,58,60,62,64,66,68,70,72,74,76,78,80,-1,82,-1,84,-1,86,88,90,92,-1,94,96,98,-1,-1,100,102,104,106,108,110,112,114,-1,116,118,-1,120,122,-1,124,126,128,130,-1,132,-1,134,136,-1,-1,-1,-1,-1,-1,-1,-1,-1,-1,-1,-1,-1,-1,-1,-1,-1,-1,-1,-1,-1,-1,-1,-1,-1,-1,-1,-1,-1,-1,-1,-1,-1,-1,-1,-1,-1,-1,-1,-1,-1,-1,-1,-1,-1,-1,-1,-1,-1,-1,-1,-1,-1,-1],"split_conditions":[6.8E1,1E0,8.4E1,1E0,4.2E1,1E0,1E0,1E0,3.6E1,1E0,1E0,1E0,3.3632907E-1,1E0,3.7778333E-1,1E0,6.3E1,1E0,1E0,3.3E1,1E0,5.1E1,2.6900598E-1,1E0,6.9E1,1E0,3.6222675E-1,5E1,6.3E1,1E0,6.5E1,3.3E1,3.4E1,1E0,4.1E1,1E0,1E0,1E0,3.5E1,4.7E1,5.5E1,1E0,7.2E1,1E0,3.8513017E-1,1.08E2,3.3405378E-1,1E0,-7.7238894E-1,3.2E1,6.7E1,1E0,5.6E1,2.0892158E-1,6.6E1,1E0,3.5E1,-2.4902649E-1,-1.0377808E0,5.6E1,6.7E1,3.8E1,6E1,1E0,3.1E1,1E0,3.6E1,-7.185258E-1,3.4E1,3.3E1,2.3836575E-1,4.5E1,1E0,2.532158E-1,6.2E1,7.3E1,1E0,1E0,3.1434512E-1,1E0,2.7811337E-1,1E0,1E0,-1.2784559E0,-8.2971257E-1,-2.0115567E-2,-5.695246E-1,-4.880117E-2,1.5898018E-1,-5.5224425E-1,-1.6941741E-1,-1.8799987E-2,-4.5208564E-1,-1.09123364E-1,2.4606057E-1,-7.2696537E-1,-2.8824717E-1,2.3273869E-1,-3.4216437E-2,-6.7150074E-1,-2.5832626E-1,7.299409E-2,-3.6770463E-1,8.0571175E-2,-3.0213115E-1,2.4616165E-1,-1.259325E-1,-2.5775325E-1,-4.113989E-2,-1.7179528E-1,2.4110775E-1,3.3220044E-1,-1.7898751E-2,1.4282271E-1,-1.6085888E-1,-6.908436E-2,-3.2302856E-1,-3.3782044E-1,-5.1958468E-2,-6.447474E-4,2.2564705E-1,2.8475571E-2,-5.5354214E-1,5.627792E-2,2.2609912E-1,-3.1284365E-1,-7.000767E-1,-2.7753255E-1,7.555895E-2,-1.6464849E-1,1.3806063E-1,2.1358375E-1,-4.286156E-2,-2.1579342E-1,1.0529039E-1,2.03866E-1,3.9704028E-1],"split_indices":[0,8,0,11,0,8,7,6,0,9,11,6,0,6,0,4,0,7,4,0,4,0,0,7,0,8,0,0,0,3,0,0,0,3,0,4,10,3,0,0,0,4,0,9,0,0,0,7,0,0,0,4,0,0,0,4,0,0,0,0,0,0,0,10,0,3,0,0,0,0,0,0,9,0,0,0,10,4,0,3,0,4,11,0,0,0,0,0,0,0,0,0,0,0,0,0,0,0,0,0,0,0,0,0,0,0,0,0,0,0,0,0,0,0,0,0,0,0,0,0,0,0,0,0,0,0,0,0,0,0,0,0,0,0,0,0,0],"split_type":[0,0,0,0,0,0,0,0,0,0,0,0,0,0,0,0,0,0,0,0,0,0,0,0,0,0,0,0,0,0,0,0,0,0,0,0,0,0,0,0,0,0,0,0,0,0,0,0,0,0,0,0,0,0,0,0,0,0,0,0,0,0,0,0,0,0,0,0,0,0,0,0,0,0,0,0,0,0,0,0,0,0,0,0,0,0,0,0,0,0,0,0,0,0,0,0,0,0,0,0,0,0,0,0,0,0,0,0,0,0,0,0,0,0,0,0,0,0,0,0,0,0,0,0,0,0,0,0,0,0,0,0,0,0,0,0,0],"sum_hessian":[8.05E2,3.41E2,4.64E2,2.38E2,1.03E2,1.4E2,3.24E2,1.58E2,8E1,3.1E1,7.2E1,1.03E2,3.7E1,2.46E2,7.8E1,9.8E1,6E1,1.3E1,6.7E1,2.1E1,1E1,4.7E1,2.5E1,7.7E1,2.6E1,1.52E2,9.4E1,5.8E1,4E1,5.3E1,7E0,1E1,3E0,3.8E1,2.9E1,8E0,1.3E1,6E0,4E0,1.5E1,3.2E1,3.6E1,4.1E1,4E0,2.2E1,7.6E1,7.6E1,3.6E1,2.2E1,3.7E1,3E0,3.8E1,1.5E1,4E0,3E0,7E0,3E0,1E0,2E0,1.2E1,2.6E1,3E0,2.6E1,5E0,3E0,4E0,9E0,3E0,3E0,3E0,1E0,1E1,5E0,1E1,2.2E1,2.4E1,1.2E1,1.3E1,2.8E1,3E0,1E0,4.8E1,2.8E1,2.2E1,1.4E1,3E0,3.4E1,2E0,1E0,2E1,1.8E1,1.3E1,2E0,2E0,1E0,3E0,4E0,1E0,2E0,5E0,7E0,2.3E1,3E0,1E0,2E0,2.3E1,3E0,2E0,3E0,2E0,1E0,3E0,1E0,5E0,4E0,1E0,2E0,2E0,1E0,5E0,5E0,2E0,3E0,1.5E1,7E0,7E0,1.7E1,9E0,3E0,1.1E1,2E0,1E0,2E0,3.3E1,1.5E1,2E1,8E0],"tree_param":{"num_deleted":"0","num_feature":"12","num_nodes":"137","size_leaf_vector":"1"}},{"base_weights":[8.890881E-2,-5.672335E0,4.4805875E0,-2.6659143E0,-1.6011162E1,6.3688245E0,-1.9318823E0,-2.5434393E-1,-7.9296384E0,-2.1372955E1,-1.1583468E1,1.7367364E0,3.3541527E-1,-8.97066E0,2.754261E0,-5.155277E0,1.4731277E0,-3.7192435E0,-1.7148321E1,-1.6908703E1,-1.4787995E0,-7.5875444E0,-1.4930252E1,5.132126E0,-4.2090993E0,-1.2373265E1,-2.455435E0,5.1360154E0,-1.5285693E0,-6.8088126E0,-1.2159615E0,3.1122465E0,-2.24837E0,-7.725385E0,1.2781868E0,-9.978075E-1,-9.315314E0,-1.934662E1,-6.0235584E-1,-9.774013E0,-3.767735E0,-1.8538225E1,-1.0451334E1,3.1751165E-1,1.8405584E0,-5.690693E0,-2.8201772E-2,-8.0834913E-1,-6.752284E0,-3.4813972E0,3.2334995E-1,2.4444335E0,6.131167E0,-5.3670726E0,2.75719E0,-5.553239E0,-9.043407E0,-3.8572392E0,7.545292E-1,1.5707985E0,5.3466125E0,-5.886986E0,2.0171134E0,-5.059058E0,-1.0765462E1,3.522348E0,-3.850859E0,-3.1213075E-1,-6.6899204E-1,-2.680399E-1,-9.981346E-1,-1.1913705E1,-3.5398247E0,-7.9654264E0,-8.308062E-1,-9.896466E-1,-1.1841088E-1,-1.2669387E1,-4.368572E0,-1.473465E0,2.8228685E-1,-1.5360489E0,-8.422664E0,-1.0082489E1,-1.1866289E0,-8.248574E-1,-5.2903336E-1,4.615408E0,-1.9522079E0,4.2564532E-1,5.437326E0,-1.0059725E1,1.7843081E0,1.7364495E0,3.4963343E-1,-1.5478313E-1,-3.7918213E-1,-7.080805E-1,-3.557713E-1,-1.0281066E-2,-4.3287617E-1,-1.742736E-1,1.5347986E-1,-2.3876028E-1,1.3194689E-1,3.1015673E-1,1.7527668E-1,-4.330886E-1,1.0445879E-1,-2.9197866E-1,1.3509633E-1,-4.910933E-1,-1.6272448E-1,-1.20324455E-1,-5.933172E-1,4.1635133E-2,1.9740044E-1,6.4854436E-2,-4.1143176E-1,-6.694375E-1,-2.0045078E-1,2.2452317E-1,-3.3350062E-1,8.6153604E-2,-5.884642E-1,-1.7223358E-2,-6.822179E-2,-1.8894139E-1,-6.654177E-1,2.872195E-1,-6.5126723E-1,-2.3544656E-1,2.0582333E-1,-4.2058888E-1,1.7798933E-1,-5.6496876E-1,-1.8486506E-1,-2.6048928E-1,-6.826374E-1,4.3096182E-1,-2.4358247E-1,1.2207215E-1,-1.381594E-1,3.3783063E-1,1.2487507E-2,-2.6658162E-1,1.0389761E-1,-2.3812047E-1,3.017906E-1,3.0941773E-2,-5.8368194E-1,-7.807217E-2,1.3828735E-1,3.668667E-2,2.9409027E-1],"categories":[],"categories_nodes":[],"categories_segments":[],"categories_sizes":[],"default_left":[0,0,0,0,0,0,0,0,0,0,0,0,0,0,0,0,0,0,0,0,0,0,0,0,0,0,0,0,0,0,0,0,0,0,0,0,0,0,0,0,0,0,0,0,0,0,0,0,0,0,0,0,0,0,0,0,0,0,0,0,0,0,0,0,0,0,0,0,0,0,0,0,0,0,0,0,0,0,0,0,0,0,0,0,0,0,0,0,0,0,0,0,0,0,0,0,0,0,0,0,0,0,0,0,0,0,0,0,0,0,0,0,0,0,0,0,0,0,0,0,0,0,0,0,0,0,0,0,0,0,0,0,0,0,0,0,0,0,0,0,0,0,0,0,0,0,0,0,0,0,0,0,0,0,0],"id":14,"left_children":[1,3,5,7,9,11,13,15,17,19,21,23,-1,25,27,29,31,33,35,37,-1,39,41,43,45,47,49,51,53,55,57,59,61,63,65,-1,67,69,-1,71,73,75,77,-1,79,81,-1,-1,83,85,-1,87,89,91,93,95,97,99,101,103,105,107,109,111,113,115,117,-1,-1,-1,-1,119,121,123,125,-1,-1,127,129,131,-1,133,135,137,139,141,-1,143,145,-1,147,149,151,153,-1,-1,-1,-1,-1,-1,-1,-1,-1,-1,-1,-1,-1,-1,-1,-1,-1,-1,-1,-1,-1,-1,-1,-1,-1,-1,-1,-1,-1,-1,-1,-1,-1,-1,-1,-1,-1,-1,-1,-1,-1,-1,-1,-1,-1,-1,-1,-1,-1,-1,-1,-1,-1,-1,-1,-1,-1,-1,-1,-1,-1],"loss_changes":[2.0823271E4,1.1022815E4,5.6668633E3,3.514177E3,1.6516562E3,5.560244E2,3.554073E3,1.6246428E3,3.3130654E3,7.81624E2,5.0189648E2,5.4650073E2,0E0,9.2287427E2,6.708928E2,3.1741077E2,8.731943E2,1.2311195E3,4.079331E2,6.323242E1,0E0,1.5526758E2,1.9408643E2,5.6473206E1,5.0795273E1,4.8791943E2,1.6897946E2,9.751123E1,4.096197E2,4.7979248E1,8.618421E1,3.3257318E2,6.947748E2,2.2113562E2,3.358554E2,0E0,2.8876404E1,2.2228516E1,0E0,1.4457703E2,1.1666548E2,1.9658936E2,1.20047485E2,0E0,8.398149E1,6.651492E1,0E0,0E0,2.2898792E2,2.7416486E2,0E0,1.3309521E2,3.2889404E0,4.5421582E2,3.973748E1,1.01270386E2,7.7799683E0,1.2092144E2,1.0885788E2,4.193064E2,4.1331787E1,5.492673E2,1.2876567E2,1.3993115E2,1.09477295E2,1.961E1,2.1350233E2,0E0,0E0,0E0,0E0,6.292212E1,1.55633E2,1.6769398E2,1.3466711E0,0E0,0E0,8.3691406E-1,5.1255066E2,9.1728294E1,0E0,1.7009445E2,1.2596832E1,6.804657E1,2.5879877E2,8.27202E1,0E0,8.244243E1,7.917697E1,0E0,1.8745935E2,1.4509833E2,2.402046E1,4.140709E1,0E0,0E0,0E0,0E0,0E0,0E0,0E0,0E0,0E0,0E0,0E0,0E0,0E0,0E0,0E0,0E0,0E0,0E0,0E0,0E0,0E0,0E0,0E0,0E0,0E0,0E0,0E0,0E0,0E0,0E0,0E0,0E0,0E0,0E0,0E0,0E0,0E0,0E0,0E0,0E0,0E0,0E0,0E0,0E0,0E0,0E0,0E0,0E0,0E0,0E0,0E0,0E0,0E0,0E0,0E0,0E0,0E0,0E0,0E0,0E0,0E0],"parents":[2147483647,0,0,1,1,2,2,3,3,4,4,5,5,6,6,7,7,8,8,9,9,10,10,11,11,13,13,14,14,15,15,16,16,17,17,18,18,19,19,21,21,22,22,23,23,24,24,25,25,26,26,27,27,28,28,29,29,30,30,31,31,32,32,33,33,34,34,36,36,37,37,39,39,40,40,41,41,42,42,44,44,45,45,48,48,49,49,51,51,52,52,53,53,54,54,55,55,56,56,57,57,58,58,59,59,60,60,61,61,62,62,63,63,64,64,65,65,66,66,71,71,72,72,73,73,74,74,77,77,78,78,79,79,81,81,82,82,83,83,84,84,85,85,87,87,88,88,90,90,91,91,92,92,93,93],"right_children":[2,4,6,8,10,12,14,16,18,20,22,24,-1,26,28,30,32,34,36,38,-1,40,42,44,46,48,50,52,54,56,58,60,62,64,66,-1,68,70,-1,72,74,76,78,-1,80,82,-1,-1,84,86,-1,88,90,92,94,96,98,100,102,104,106,108,110,112,114,116,118,-1,-1,-1,-1,120,122,124,126,-1,-1,128,130,132,-1,134,136,138,140,142,-1,144,146,-1,148,150,152,154,-1,-1,-1,-1,-1,-1,-1,-1,-1,-1,-1,-1,-1,-1,-1,-1,-1,-1,-1,-1,-1,-1,-1,-1,-1,-1,-1,-1,-1,-1,-1,-1,-1,-1,-1,-1,-1,-1,-1,-1,-1,-1,-1,-1,-1,-1,-1,-1,-1,-1,-1,-1,-1,-1,-1,-1,-1,-1,-1,-1,-1],"split_conditions":[6.9E1,1E0,1E0,1E0,4.6E1,7.2E1,8.9E1,4E1,1E0,1E0,6E1,1E0,3.3541527E-1,1E0,1E0,1E0,1E0,5.3E1,4.8E1,1E0,-1.4787995E0,1E0,1E0,1E0,1E0,1E0,8.7E1,9.4E1,1.05E2,1E0,3.4E1,1E0,1E0,1E0,1E0,-9.978075E-1,5.7E1,3.1E1,-6.0235584E-1,1E0,5.1E1,6.7E1,1E0,3.1751165E-1,1E0,1E0,-2.8201772E-2,-8.0834913E-1,8.2E1,7.8E1,3.2334995E-1,9.3E1,9.7E1,1E0,1E0,1E0,3.1E1,1E0,1E0,4.4E1,1E0,6.3E1,4.1E1,3.4E1,3.5E1,5.6E1,1E0,-3.1213075E-1,-6.6899204E-1,-2.680399E-1,-9.981346E-1,5.7E1,5E1,4.7E1,1E0,-9.896466E-1,-1.1841088E-1,6.2E1,6.4E1,1E0,2.8228685E-1,7E1,7.1E1,1E0,8.3E1,7.1E1,-5.2903336E-1,1E0,1E0,4.2564532E-1,9.8E1,9.4E1,9.5E1,1.19E2,3.4963343E-1,-1.5478313E-1,-3.7918213E-1,-7.080805E-1,-3.557713E-1,-1.0281066E-2,-4.3287617E-1,-1.742736E-1,1.5347986E-1,-2.3876028E-1,1.3194689E-1,3.1015673E-1,1.7527668E-1,-4.330886E-1,1.0445879E-1,-2.9197866E-1,1.3509633E-1,-4.910933E-1,-1.6272448E-1,-1.20324455E-1,-5.933172E-1,4.1635133E-2,1.9740044E-1,6.4854436E-2,-4.1143176E-1,-6.694375E-1,-2.0045078E-1,2.2452317E-1,-3.3350062E-1,8.6153604E-2,-5.884642E-1,-1.7223358E-2,-6.822179E-2,-1.8894139E-1,-6.654177E-1,2.872195E-1,-6.5126723E-1,-2.3544656E-1,2.0582333E-1,-4.2058888E-1,1.7798933E-1,-5.6496876E-1,-1.8486506E-1,-2.6048928E-1,-6.826374E-1,4.3096182E-1,-2.4358247E-1,1.2207215E-1,-1.381594E-1,3.3783063E-1,1.2487507E-2,-2.6658162E-1,1.0389761E-1,-2.3812047E-1,3.017906E-1,3.0941773E-2,-5.8368194E-1,-7.807217E-2,1.3828735E-1,3.668667E-2,2.9409027E-1],"split_indices":[0,5,5,2,0,0,0,0,7,2,0,7,0,4,2,11,7,0,0,11,0,4,11,6,11,11,0,0,0,7,0,11,11,6,6,0,0,0,0,11,0,0,3,0,10,2,0,0,0,0,0,0,0,10,11,6,0,6,3,0,3,0,0,0,0,0,10,0,0,0,0,0,0,0,10,0,0,0,0,11,0,0,0,2,0,0,0,3,10,0,0,0,0,0,0,0,0,0,0,0,0,0,0,0,0,0,0,0,0,0,0,0,0,0,0,0,0,0,0,0,0,0,0,0,0,0,0,0,0,0,0,0,0,0,0,0,0,0,0,0,0,0,0,0,0,0,0,0,0,0,0,0,0,0,0],"split_type":[0,0,0,0,0,0,0,0,0,0,0,0,0,0,0,0,0,0,0,0,0,0,0,0,0,0,0,0,0,0,0,0,0,0,0,0,0,0,0,0,0,0,0,0,0,0,0,0,0,0,0,0,0,0,0,0,0,0,0,0,0,0,0,0,0,0,0,0,0,0,0,0,0,0,0,0,0,0,0,0,0,0,0,0,0,0,0,0,0,0,0,0,0,0,0,0,0,0,0,0,0,0,0,0,0,0,0,0,0,0,0,0,0,0,0,0,0,0,0,0,0,0,0,0,0,0,0,0,0,0,0,0,0,0,0,0,0,0,0,0,0,0,0,0,0,0,0,0,0,0,0,0,0,0,0],"sum_hessian":[8.21E2,3.55E2,4.66E2,2.76E2,7.9E1,3.6E2,1.06E2,1.9E2,8.6E1,3.4E1,4.5E1,2.5E1,3.35E2,4.2E1,6.4E1,4.9E1,1.41E2,6E1,2.6E1,2.4E1,1E1,2.2E1,2.3E1,1.6E1,9E0,2.7E1,1.5E1,4.1E1,2.3E1,3.4E1,1.5E1,9.8E1,4.3E1,3.3E1,2.7E1,1.8E1,8E0,1.4E1,1E1,1.3E1,9E0,1.1E1,1.2E1,1.1E1,5E0,6E0,3E0,1.5E1,1.2E1,1.4E1,1E0,1.2E1,2.9E1,1.2E1,1.1E1,2.4E1,1E1,6E0,9E0,5.9E1,3.9E1,2.3E1,2E1,1.9E1,1.4E1,1.9E1,8E0,6E0,2E0,1E0,1.3E1,9E0,4E0,3E0,6E0,1E1,1E0,8E0,4E0,3E0,2E0,3E0,3E0,7E0,5E0,1.1E1,3E0,8E0,4E0,4E0,2.5E1,7E0,5E0,1E1,1E0,1.2E1,1.2E1,1E0,9E0,4E0,2E0,3E0,6E0,8E0,5.1E1,2.5E1,1.4E1,1.7E1,6E0,1E0,1.9E1,4E0,1.5E1,2E0,1.2E1,3E0,1.6E1,4E0,4E0,7E0,2E0,1E0,3E0,1E0,2E0,4E0,2E0,1E0,7E0,2E0,2E0,2E0,1E0,1E0,2E0,1E0,2E0,4E0,3E0,1E0,4E0,4E0,7E0,5E0,3E0,2E0,2E0,1E0,2.4E1,1E0,6E0,1E0,4E0,9E0,1E0],"tree_param":{"num_deleted":"0","num_feature":"12","num_nodes":"155","size_leaf_vector":"1"}},{"base_weights":[3.8175527E-2,2.3204503E0,-7.1248517E0,3.424606E0,1.2767439E-1,-3.7631066E0,-1.2943068E1,4.2602577E0,1.868796E0,-1.3874046E0,2.631745E0,-5.6672344E0,-2.520517E-1,-5.6728673E-1,-7.635654E-1,3.5781798E0,2.4576142E-1,1.8132262E-1,3.3762548E0,-3.0194446E-1,-1.5767111E-1,3.8546102E0,3.2669067E-2,-5.0620437E-1,-2.550023E0,-4.8644893E-2,4.4163365E-2,2.5309212E0,2.3014794E-1,-6.3844264E-1,1.11083485E-1,2.0564894E-1,9.0064324E-2,-1.1358368E0,3.9041027E-1,2.2548361E-1,1.6128246E-1,-2.2149502E-1,-2.0361932E-2,1.1097895E-1,1.6362253E-1,-2.2531128E-2,-3.794558E-2,-3.8330123E-2,-6.903267E-2,6.6588745E-2,-1.14347935E-2],"categories":[],"categories_nodes":[],"categories_segments":[],"categories_sizes":[],"default_left":[0,0,0,0,0,0,0,0,0,0,0,0,0,0,0,0,0,0,0,0,0,0,0,0,0,0,0,0,0,0,0,0,0,0,0,0,0,0,0,0,0,0,0,0,0,0,0],"id":15,"left_children":[1,3,5,7,9,11,13,15,17,19,21,23,25,-1,-1,27,-1,29,31,33,-1,35,-1,-1,37,-1,-1,39,-1,41,-1,-1,-1,43,45,-1,-1,-1,-1,-1,-1,-1,-1,-1,-1,-1,-1],"loss_changes":[1.3193019E4,1.4813162E3,3.7653682E3,5.2118555E2,7.8518744E2,8.3425903E2,9.07832E1,1.0035205E2,3.6569446E2,2.4633331E2,1.8618475E2,1.0995122E3,3.7686893E1,0E0,0E0,1.3108704E2,0E0,1.16828186E2,8.077551E1,4.7208736E1,0E0,5.2297363E0,0E0,0E0,1.9557639E2,0E0,0E0,8.435638E0,0E0,7.893429E-1,0E0,0E0,0E0,2.2861938E0,2.6530777E1,0E0,0E0,0E0,0E0,0E0,0E0,0E0,0E0,0E0,0E0,0E0,0E0],"parents":[2147483647,0,0,1,1,2,2,3,3,4,4,5,5,6,6,7,7,8,8,9,9,10,10,11,11,12,12,15,15,17,17,18,18,19,19,21,21,24,24,27,27,29,29,33,33,34,34],"right_children":[2,4,6,8,10,12,14,16,18,20,22,24,26,-1,-1,28,-1,30,32,34,-1,36,-1,-1,38,-1,-1,40,-1,42,-1,-1,-1,44,46,-1,-1,-1,-1,-1,-1,-1,-1,-1,-1,-1,-1],"split_conditions":[1E0,1E0,1E0,1E0,1E0,1E0,1E0,1E0,1E0,1E0,1E0,1E0,1E0,-5.6728673E-1,-7.635654E-1,1E0,2.4576142E-1,1E0,1E0,1E0,-1.5767111E-1,1E0,3.2669067E-2,-5.0620437E-1,1E0,-4.8644893E-2,4.4163365E-2,1E0,2.3014794E-1,1E0,1.11083485E-1,2.0564894E-1,9.0064324E-2,1E0,1E0,2.2548361E-1,1.6128246E-1,-2.2149502E-1,-2.0361932E-2,1.1097895E-1,1.6362253E-1,-2.2531128E-2,-3.794558E-2,-3.8330123E-2,-6.903267E-2,6.6588745E-2,-1.14347935E-2],"split_indices":[5,7,2,2,11,11,9,4,8,2,2,4,4,0,0,8,0,11,9,4,0,4,0,0,9,0,0,10,0,9,0,0,0,9,9,0,0,0,0,0,0,0,0,0,0,0,0],"split_type":[0,0,0,0,0,0,0,0,0,0,0,0,0,0,0,0,0,0,0,0,0,0,0,0,0,0,0,0,0,0,0,0,0,0,0,0,0,0,0,0,0,0,0,0,0,0,0],"sum_hessian":[8.05E2,6.11E2,1.94E2,4.06E2,2.05E2,1.24E2,7E1,2.63E2,1.43E2,1.28E2,7.7E1,8E1,4.4E1,4.5E1,2.5E1,1.32E2,1.31E2,6.8E1,7.5E1,8E1,4.8E1,4.7E1,3E1,3.2E1,4.8E1,2.7E1,1.7E1,6.7E1,6.5E1,4.9E1,1.9E1,5E1,2.5E1,3.6E1,4.4E1,2E1,2.7E1,2.5E1,2.3E1,5E1,1.7E1,2.1E1,2.8E1,1.6E1,2E1,1.7E1,2.7E1],"tree_param":{"num_deleted":"0","num_feature":"12","num_nodes":"47","size_leaf_vector":"1"}},{"base_weights":[-4.5124298E-1,-6.18543E0,4.1777935E0,-8.994529E0,1.3205367E0,1.199656E0,5.3034487E0,-5.9643593E0,-1.5804244E1,-1.8620793E0,3.9583514E0,-7.2471917E-1,2.988635E-1,4.759692E0,3.409898E-1,-9.217834E0,-4.8768097E-1,-1.8768724E1,-8.811354E0,8.9070666E-1,-6.6104026E0,4.8894925E0,1.7727E0,-3.644158E0,6.222273E0,3.7600248E0,6.4284563E0,-1.2843597E1,-3.211773E0,-9.0311165E0,2.8722482E0,-1.1780409E0,-1.3830216E1,-1.0397751E1,-6.8934634E-2,-9.267375E-1,4.6182685E0,-2.7191806E0,-1.064813E1,4.5801736E-2,4.9721255E0,-2.4011154E0,4.0597005E0,-8.342301E0,1.9584812E0,5.122859E-1,3.3292904E-1,1.7091062E0,2.9076913E-1,2.0487428E-1,3.2878387E-1,-1.5888598E1,-8.763488E0,-6.769486E0,8.153579E-1,-6.4533176E0,-8.8644904E-1,1.668018E0,4.3838234E0,-1.09469794E-1,-7.078064E-1,-6.119798E-1,-1.687561E0,2.5030163E-1,-5.1209235E0,-3.0710652E-1,1.086956E0,-4.941521E-2,2.6755163E-1,1.787555E0,-6.021597E0,-6.8064696E-1,-6.146657E0,4.1268783E0,3.1075653E-1,-1.4635722E-1,-3.982416E-1,2.8334257E-1,2.8943338E0,-1.1653542E1,-2.5430448E0,-2.5335796E0,5.0939426E0,1.9541073E-1,-1.5698929E-1,3.9893467E0,-3.0925128E0,-9.8736906E-1,-5.521223E-1,-3.0558395E-1,-6.447423E-1,-3.9216968E-1,-1.520469E-1,3.4346038E-1,-2.5102515E-2,-6.0775054E-1,-1.7294566E-3,1.5119061E-1,-2.1295634E-1,-4.418831E-2,3.2072026E-1,5.5621464E-2,-1.9625156E-1,-4.122164E-1,2.8147126E-2,1.8607797E-1,-1.0064211E-1,-1.9603437E-1,3.449973E-1,-4.9891123E-1,-7.743635E-2,-6.3108705E-2,-4.491127E-1,2.8471738E-1,1.6004772E-1,-1.0208954E-1,2.3327027E-1,-2.930387E-2,1.986231E-1,-1.1295046E-1,-7.141878E-1,-5.603242E-2,-3.6924744E-1,8.136962E-2,-3.1663057E-1,3.3034775E-1,1.4234124E-1,1.3320504E-1,3.245917E-1,-3.1607413E-1,1.8545197E-1],"categories":[],"categories_nodes":[],"categories_segments":[],"categories_sizes":[],"default_left":[0,0,0,0,0,0,0,0,0,0,0,0,0,0,0,0,0,0,0,0,0,0,0,0,0,0,0,0,0,0,0,0,0,0,0,0,0,0,0,0,0,0,0,0,0,0,0,0,0,0,0,0,0,0,0,0,0,0,0,0,0,0,0,0,0,0,0,0,0,0,0,0,0,0,0,0,0,0,0,0,0,0,0,0,0,0,0,0,0,0,0,0,0,0,0,0,0,0,0,0,0,0,0,0,0,0,0,0,0,0,0,0,0,0,0,0,0,0,0,0,0,0,0,0,0,0,0,0,0,0,0],"id":16,"left_children":[1,3,5,7,9,11,13,15,17,19,21,23,-1,25,-1,27,29,31,33,35,37,39,41,43,45,47,49,51,53,55,57,-1,59,61,63,65,67,69,71,-1,73,75,77,79,81,83,-1,85,-1,-1,-1,87,89,91,93,95,-1,97,99,-1,-1,-1,101,-1,103,-1,105,-1,-1,107,109,-1,111,113,-1,115,-1,-1,117,119,121,123,125,-1,-1,127,129,-1,-1,-1,-1,-1,-1,-1,-1,-1,-1,-1,-1,-1,-1,-1,-1,-1,-1,-1,-1,-1,-1,-1,-1,-1,-1,-1,-1,-1,-1,-1,-1,-1,-1,-1,-1,-1,-1,-1,-1,-1,-1,-1,-1],"loss_changes":[2.1632465E4,7.6868174E3,1.5055508E3,5.3739043E3,8.4688586E2,1.1535723E3,2.371582E2,3.2918794E3,1.5137754E3,6.071593E2,1.03265625E2,1.8479935E3,0E0,3.8287207E2,0E0,2.48483E3,2.0353131E3,9.994336E2,3.598761E2,2.07519E2,2.3814459E2,7.9223022E0,1.8156714E2,1.7009462E3,6.385437E1,6.4344336E2,3.9414062E0,7.552832E2,6.5025134E2,3.340161E2,8.552219E1,0E0,8.2822754E1,3.3228662E2,1.5382889E2,2.272225E2,4.63714E1,1.5959511E2,2.3094055E1,0E0,1.32247925E1,8.664815E1,6.073288E0,6.424602E2,4.3544647E2,4.947748E1,0E0,8.77296E2,0E0,0E0,0E0,5.299512E2,2.8272485E2,7.224744E1,1.7890727E2,6.2173914E2,0E0,2.5395844E2,2.4098676E2,0E0,0E0,0E0,3.5690792E1,0E0,5.79001E1,0E0,1.3815874E2,0E0,0E0,1.7296635E2,9.073131E1,0E0,5.7914963E1,1.805658E1,0E0,6.424803E1,0E0,0E0,3.6099144E1,5.1134448E2,8.814358E1,2.1580533E2,4.238968E1,0E0,0E0,1.6179132E2,5.9445886E2,0E0,0E0,0E0,0E0,0E0,0E0,0E0,0E0,0E0,0E0,0E0,0E0,0E0,0E0,0E0,0E0,0E0,0E0,0E0,0E0,0E0,0E0,0E0,0E0,0E0,0E0,0E0,0E0,0E0,0E0,0E0,0E0,0E0,0E0,0E0,0E0,0E0,0E0,0E0,0E0,0E0,0E0,0E0,0E0],"parents":[2147483647,0,0,1,1,2,2,3,3,4,4,5,5,6,6,7,7,8,8,9,9,10,10,11,11,13,13,15,15,16,16,17,17,18,18,19,19,20,20,21,21,22,22,23,23,24,24,25,25,26,26,27,27,28,28,29,29,30,30,32,32,33,33,34,34,35,35,36,36,37,37,38,38,40,40,41,41,42,42,43,43,44,44,45,45,47,47,51,51,52,52,53,53,54,54,55,55,57,57,58,58,62,62,64,64,66,66,69,69,70,70,72,72,73,73,75,75,78,78,79,79,80,80,81,81,82,82,85,85,86,86],"right_children":[2,4,6,8,10,12,14,16,18,20,22,24,-1,26,-1,28,30,32,34,36,38,40,42,44,46,48,50,52,54,56,58,-1,60,62,64,66,68,70,72,-1,74,76,78,80,82,84,-1,86,-1,-1,-1,88,90,92,94,96,-1,98,100,-1,-1,-1,102,-1,104,-1,106,-1,-1,108,110,-1,112,114,-1,116,-1,-1,118,120,122,124,126,-1,-1,128,130,-1,-1,-1,-1,-1,-1,-1,-1,-1,-1,-1,-1,-1,-1,-1,-1,-1,-1,-1,-1,-1,-1,-1,-1,-1,-1,-1,-1,-1,-1,-1,-1,-1,-1,-1,-1,-1,-1,-1,-1,-1,-1,-1,-1],"split_conditions":[7E1,1E0,8.4E1,1E0,4.9E1,1E0,1E0,1E0,1E0,1E0,1E0,1E0,2.988635E-1,1E0,3.409898E-1,1E0,4.1E1,4.5E1,1E0,1E0,1E0,5E1,5.6E1,1E0,7.1E1,1E0,8.7E1,5.1E1,5.2E1,3.9E1,1E0,-1.1780409E0,4.6E1,5.8E1,5.7E1,3.3E1,3.1E1,3.6E1,4.1E1,4.5801736E-2,1E0,5.4E1,5.9E1,1E0,7.6E1,1E0,3.3292904E-1,1E0,2.9076913E-1,2.0487428E-1,3.2878387E-1,1E0,1E0,4.6E1,5.3E1,3.4E1,-8.8644904E-1,6.7E1,5E1,-1.09469794E-1,-7.078064E-1,-6.119798E-1,6.2E1,2.5030163E-1,6E1,-3.0710652E-1,1E0,-4.941521E-2,2.6755163E-1,3.2E1,1E0,-6.8064696E-1,4.6E1,5.6E1,3.1075653E-1,5.3E1,-3.982416E-1,2.8334257E-1,6.1E1,7.3E1,7.8E1,1E0,1E0,1.9541073E-1,-1.5698929E-1,1.1E2,1.07E2,-9.8736906E-1,-5.521223E-1,-3.0558395E-1,-6.447423E-1,-3.9216968E-1,-1.520469E-1,3.4346038E-1,-2.5102515E-2,-6.0775054E-1,-1.7294566E-3,1.5119061E-1,-2.1295634E-1,-4.418831E-2,3.2072026E-1,5.5621464E-2,-1.9625156E-1,-4.122164E-1,2.8147126E-2,1.8607797E-1,-1.0064211E-1,-1.9603437E-1,3.449973E-1,-4.9891123E-1,-7.743635E-2,-6.3108705E-2,-4.491127E-1,2.8471738E-1,1.6004772E-1,-1.0208954E-1,2.3327027E-1,-2.930387E-2,1.986231E-1,-1.1295046E-1,-7.141878E-1,-5.603242E-2,-3.6924744E-1,8.136962E-2,-3.1663057E-1,3.3034775E-1,1.4234124E-1,1.3320504E-1,3.245917E-1,-3.1607413E-1,1.8545197E-1],"split_indices":[0,8,0,2,0,8,7,11,6,2,2,6,0,6,0,6,0,0,11,11,9,0,0,7,0,8,0,0,0,0,6,0,0,0,0,0,0,0,0,0,11,0,0,4,0,3,0,2,0,0,0,7,3,0,0,0,0,0,0,0,0,0,0,0,0,0,3,0,0,0,11,0,0,0,0,0,0,0,0,0,0,2,2,0,0,0,0,0,0,0,0,0,0,0,0,0,0,0,0,0,0,0,0,0,0,0,0,0,0,0,0,0,0,0,0,0,0,0,0,0,0,0,0,0,0,0,0,0,0,0,0],"split_type":[0,0,0,0,0,0,0,0,0,0,0,0,0,0,0,0,0,0,0,0,0,0,0,0,0,0,0,0,0,0,0,0,0,0,0,0,0,0,0,0,0,0,0,0,0,0,0,0,0,0,0,0,0,0,0,0,0,0,0,0,0,0,0,0,0,0,0,0,0,0,0,0,0,0,0,0,0,0,0,0,0,0,0,0,0,0,0,0,0,0,0,0,0,0,0,0,0,0,0,0,0,0,0,0,0,0,0,0,0,0,0,0,0,0,0,0,0,0,0,0,0,0,0,0,0,0,0,0,0,0,0],"sum_hessian":[8.13E2,3.63E2,4.5E2,2.64E2,9.9E1,1.24E2,3.26E2,1.84E2,8E1,4.5E1,5.4E1,8.9E1,3.5E1,2.43E2,8.3E1,1.15E2,6.9E1,5.5E1,2.5E1,2.9E1,1.6E1,3.7E1,1.7E1,6.3E1,2.6E1,1.54E2,8.9E1,7.1E1,4.4E1,1.9E1,5E1,2.6E1,2.9E1,2.1E1,4E0,2E1,9E0,9E0,7E0,1E0,3.6E1,6E0,1.1E1,3.4E1,2.9E1,2E0,2.4E1,7.8E1,7.6E1,7E0,8.2E1,3.9E1,3.2E1,2.3E1,2.1E1,1.6E1,3E0,2.9E1,2.1E1,1E0,2.8E1,1.7E1,4E0,2E0,2E0,5E0,1.5E1,1E0,8E0,4E0,5E0,3E0,4E0,2.4E1,1.2E1,5E0,1E0,3E0,8E0,2.1E1,1.3E1,1.2E1,1.7E1,1E0,1E0,5.3E1,2.5E1,2E1,1.9E1,2.1E1,1.1E1,1.7E1,6E0,3E0,1.8E1,8E0,8E0,2.4E1,5E0,6E0,1.5E1,2E0,2E0,1E0,1E0,8E0,7E0,2E0,2E0,2E0,3E0,2E0,2E0,7E0,1.7E1,4E0,1E0,2E0,6E0,5E0,1.6E1,1.1E1,2E0,6E0,6E0,9E0,8E0,3.6E1,1.7E1,1.7E1,8E0],"tree_param":{"num_deleted":"0","num_feature":"12","num_nodes":"131","size_leaf_vector":"1"}},{"base_weights":[-4.9300157E-2,-6.673995E0,3.7982135E0,-4.2871933E0,-1.5660636E1,5.4286222E0,-1.9269046E0,-1.9760221E0,-9.44501E0,-1.1801396E1,-2.2817144E1,2.2871184E0,5.936607E0,-7.613906E0,2.652341E0,1.129303E0,-5.3671794E0,-1.2521936E1,-3.625103E0,-1.4144295E1,-8.673392E0,-1.4633614E0,-1.2795331E1,3.9516065E0,-1.3374417E0,5.1683154E0,3.0591524E-1,-4.1816072E0,-1.2481508E1,-8.304313E-1,4.5793457E0,3.002212E0,-1.6594048E0,-2.7816436E0,-1.0069544E1,-1.3240827E1,-7.272382E0,-5.134573E-1,-1.0951079E1,-2.167718E-1,-1.5398852E1,-9.921887E0,2.124873E0,-1.3539966E1,-1.5234052E-1,2.4397269E-1,2.25487E0,7.6980865E-1,-6.031452E0,3.042018E-1,3.0452182E0,1.1158885E0,-8.363875E0,-1.0094292E1,-7.906949E-1,1.437986E0,-5.547014E0,5.722621E0,2.3638592E0,9.0279484E-1,4.5816717E0,-4.896326E0,2.24635E0,-5.0987997E0,1.2966038E0,-1.1137006E1,-8.8051987E-1,-1.1251258E1,-1.5646324E1,-2.0884947E-1,-4.6617633E-1,-4.7215466E0,2.1156328E0,-7.364E-1,-1.7460795E-1,-1.1481008E1,-1.8168596E1,-6.169035E-1,-6.5135164E0,2.1634637E-1,-5.6980897E-2,-7.609008E-1,-2.5555974E-1,3.3275363E0,-1.7950134E0,-2.5624448E-1,1.6174692E0,1.2996559E0,-6.89789E-1,2.9803225E-1,1.1980732E-1,3.6763258E0,-1.5840349E0,-1.4871911E1,-1.6702557E0,-5.697261E-1,-5.475998E-2,3.2783787E0,-2.4824638E0,4.148585E-1,-7.6034484E0,4.1155195E0,3.2129428E-1,4.801903E0,-6.7442226E-1,-5.2554917E-2,2.138036E-1,2.4614687E-1,-1.3287583E-1,-9.071813E-2,-4.2307875E-1,4.6852115E-3,1.8719159E-1,-3.2246134E-1,-8.444433E-2,1.8560356E-1,-2.4790828E-1,-5.985957E-1,-3.248907E-1,9.3219884E-2,-2.2788182E-1,-4.3794265E-1,-7.4929637E-1,-8.13948E-1,-1.5392017E-1,-3.892784E-1,-6.6301E-2,2.1146508E-1,-1.05604865E-1,-7.909385E-1,-1.5559696E-1,-1.1929506E0,-3.8531882E-1,-2.215462E-1,-6.3142127E-1,2.057523E-1,-1.5306453E-1,8.029099E-2,-1.7319489E-1,2.0041023E-1,-9.19878E-2,-5.5682946E-2,1.237657E-1,-2.0719369E-1,1.2376036E-1,2.7650732E-1,-6.283786E-2,-1.7978637E-1,3.1244525E-1,-1.1619707E-1,-9.062527E-1,1.06480025E-1,-5.623227E-1,3.0995646E-1,-2.0564519E-1,-2.7411526E-1,1.9401645E-2,-8.441353E-3,3.955574E-2,-4.5682976E-1,-1.512385E-1,4.1339025E-1,7.6246835E-2,3.6015272E-1,-3.6018276E-1,-2.8525308E-1,2.891241E-1],"categories":[],"categories_nodes":[],"categories_segments":[],"categories_sizes":[],"default_left":[0,0,0,0,0,0,0,0,0,0,0,0,0,0,0,0,0,0,0,0,0,0,0,0,0,0,0,0,0,0,0,0,0,0,0,0,0,0,0,0,0,0,0,0,0,0,0,0,0,0,0,0,0,0,0,0,0,0,0,0,0,0,0,0,0,0,0,0,0,0,0,0,0,0,0,0,0,0,0,0,0,0,0,0,0,0,0,0,0,0,0,0,0,0,0,0,0,0,0,0,0,0,0,0,0,0,0,0,0,0,0,0,0,0,0,0,0,0,0,0,0,0,0,0,0,0,0,0,0,0,0,0,0,0,0,0,0,0,0,0,0,0,0,0,0,0,0,0,0,0,0,0,0,0,0,0,0,0,0,0,0,0,0,0,0,0,0],"id":17,"left_children":[1,3,5,7,9,11,13,15,17,19,21,23,25,27,29,31,33,35,37,39,41,-1,43,45,47,49,-1,51,53,55,57,59,61,63,65,67,69,71,73,-1,75,77,79,81,-1,-1,83,85,87,-1,89,91,93,95,-1,97,99,101,103,105,107,109,111,113,115,117,119,121,123,-1,-1,125,127,-1,-1,129,131,-1,133,-1,-1,-1,-1,